{"learner":{"attributes":{"best_iteration":"169","best_score":"1.3144416052717691"},"feature_names":["elo_diff","squad_value_diff","home_form","away_form","home_advantage"],"feature_types":["float","float","float","float","float"],"gradient_booster":{"model":{"cats":{"enc":[],"feature_segments":[],"sorted_idx":[]},"gbtree_model_param":{"num_parallel_tree":"1","num_trees":"220"},"iteration_indptr":[0,1,2,3,4,5,6,7,8,9,10,11,12,13,14,15,16,17,18,19,20,21,22,23,24,25,26,27,28,29,30,31,32,33,34,35,36,37,38,39,40,41,42,43,44,45,46,47,48,49,50,51,52,53,54,55,56,57,58,59,60,61,62,63,64,65,66,67,68,69,70,71,72,73,74,75,76,77,78,79,80,81,82,83,84,85,86,87,88,89,90,91,92,93,94,95,96,97,98,99,100,101,102,103,104,105,106,107,108,109,110,111,112,113,114,115,116,117,118,119,120,121,122,123,124,125,126,127,128,129,130,131,132,133,134,135,136,137,138,139,140,141,142,143,144,145,146,147,148,149,150,151,152,153,154,155,156,157,158,159,160,161,162,163,164,165,166,167,168,169,170,171,172,173,174,175,176,177,178,179,180,181,182,183,184,185,186,187,188,189,190,191,192,193,194,195,196,197,198,199,200,201,202,203,204,205,206,207,208,209,210,211,212,213,214,215,216,217,218,219,220],"tree_info":[0,0,0,0,0,0,0,0,0,0,0,0,0,0,0,0,0,0,0,0,0,0,0,0,0,0,0,0,0,0,0,0,0,0,0,0,0,0,0,0,0,0,0,0,0,0,0,0,0,0,0,0,0,0,0,0,0,0,0,0,0,0,0,0,0,0,0,0,0,0,0,0,0,0,0,0,0,0,0,0,0,0,0,0,0,0,0,0,0,0,0,0,0,0,0,0,0,0,0,0,0,0,0,0,0,0,0,0,0,0,0,0,0,0,0,0,0,0,0,0,0,0,0,0,0,0,0,0,0,0,0,0,0,0,0,0,0,0,0,0,0,0,0,0,0,0,0,0,0,0,0,0,0,0,0,0,0,0,0,0,0,0,0,0,0,0,0,0,0,0,0,0,0,0,0,0,0,0,0,0,0,0,0,0,0,0,0,0,0,0,0,0,0,0,0,0,0,0,0,0,0,0,0,0,0,0,0,0,0,0,0,0,0,0,0,0,0,0,0,0],"trees":[{"base_weights":[-1.045872E-3,3.1032237E-1,-1.19448856E-1,7E-1,2.3537777E-1,-3.0327821E-2,-2.3391017E-1,7E-1,4.1445E-1,4.6065935E-1,1.7635082E-1,6.815297E-2,-7.402408E-2,-1.3363652E-1,-2.7104548E-1,3.5E-2,2.8057048E-2,1.5760427E-2,3.5E-2,3.5E-2,1.7333163E-2,1.5206573E-2,6.4265057E-3,1.8554024E-2,1.8311254E-3,3.6775903E-4,-5.1329467E-3,-3.6360868E-3,-1.0008706E-2,-1.1575673E-2,-1.6648069E-2],"categories":[],"categories_nodes":[],"categories_segments":[],"categories_sizes":[],"default_left":[0,0,0,0,0,0,0,0,0,0,0,0,0,0,0,0,0,0,0,0,0,0,0,0,0,0,0,0,0,0,0],"id":0,"left_children":[1,3,5,7,9,11,13,15,17,19,21,23,25,27,29,-1,-1,-1,-1,-1,-1,-1,-1,-1,-1,-1,-1,-1,-1,-1,-1],"loss_changes":[8.9471967E2,2.4727124E2,1.7935303E2,1.5235046E1,7.7721344E1,4.255036E1,2.8624817E1,6.456909E-1,6.2549706E0,4.9677673E1,2.8300018E1,2.9014217E1,1.5960171E1,8.424461E0,1.366861E1,0E0,0E0,0E0,0E0,0E0,0E0,0E0,0E0,0E0,0E0,0E0,0E0,0E0,0E0,0E0,0E0],"parents":[2147483647,0,0,1,1,2,2,3,3,4,4,5,5,6,6,7,7,8,8,9,9,10,10,11,11,12,12,13,13,14,14],"right_children":[2,4,6,8,10,12,14,16,18,20,22,24,26,28,30,-1,-1,-1,-1,-1,-1,-1,-1,-1,-1,-1,-1,-1,-1,-1,-1],"split_conditions":[-1.308E2,-4.555E2,1.344E2,3.6363637E-1,1.3513513E-1,1E0,1E0,-4.766E2,-6.3E1,1E0,1E0,1.3513513E-1,-6.08E1,2.339E2,3.212E2,3.5E-2,2.8057048E-2,1.5760427E-2,3.5E-2,3.5E-2,1.7333163E-2,1.5206573E-2,6.4265057E-3,1.8554024E-2,1.8311254E-3,3.6775903E-4,-5.1329467E-3,-3.6360868E-3,-1.0008706E-2,-1.1575673E-2,-1.6648069E-2],"split_indices":[0,0,0,2,2,4,4,0,1,4,4,2,0,0,0,0,0,0,0,0,0,0,0,0,0,0,0,0,0,0,0],"split_type":[0,0,0,0,0,0,0,0,0,0,0,0,0,0,0,0,0,0,0,0,0,0,0,0,0,0,0,0,0,0,0],"sum_hessian":[2.426689E4,6.6851387E3,1.7581752E4,8.3530176E2,5.849837E3,9.885805E3,7.695947E3,6.43448E2,1.9185376E2,1.2131061E3,4.636731E3,3.0381008E3,6.8477036E3,2.0811023E3,5.6148447E3,5.8555133E2,5.7896698E1,1.5075845E2,4.1095303E1,2.5519955E2,9.5790656E2,1.2612397E3,3.375491E3,2.8539667E2,2.752704E3,1.7825371E3,5.0651665E3,1.0875497E3,9.9355273E2,3.429755E3,2.1850896E3],"tree_param":{"num_deleted":"0","num_feature":"5","num_nodes":"31","size_leaf_vector":"1"}},{"base_weights":[-1.7071689E-3,1.7055169E-1,-1.658642E-1,4.460957E-1,1.0209074E-1,-6.339304E-2,-2.0625725E-1,7E-1,3.8435358E-1,1.8162279E-1,5.3310562E-2,2.860071E-1,-8.936188E-2,-2.8363195E-1,-1.7791112E-1,1.5345246E-2,3.5E-2,3.175422E-2,1.5566212E-2,5.8213416E-3,1.35771725E-2,7.7374205E-3,3.7960376E-4,8.200776E-3,3.2362096E-2,-7.952562E-3,-3.5741925E-3,-1.27313305E-2,-1.7457595E-2,-5.4680738E-3,-9.944278E-3],"categories":[],"categories_nodes":[],"categories_segments":[],"categories_sizes":[],"default_left":[0,0,0,0,0,0,0,0,0,0,0,0,0,0,0,0,0,0,0,0,0,0,0,0,0,0,0,0,0,0,0],"id":1,"left_children":[1,3,5,7,9,11,13,15,17,19,21,23,25,27,29,-1,-1,-1,-1,-1,-1,-1,-1,-1,-1,-1,-1,-1,-1,-1,-1],"loss_changes":[6.8917474E2,2.2429385E2,5.1640625E1,4.5925232E1,3.695121E1,3.2053562E1,1.9580566E1,2.5287323E0,3.6369965E1,2.1198997E1,2.7391027E1,1.0665712E1,4.0831814E0,4.4686127E0,9.400665E0,0E0,0E0,0E0,0E0,0E0,0E0,0E0,0E0,0E0,0E0,0E0,0E0,0E0,0E0,0E0,0E0],"parents":[2147483647,0,0,1,1,2,2,3,3,4,4,5,5,6,6,7,7,8,8,9,9,10,10,11,11,12,12,13,13,14,14],"right_children":[2,4,6,8,10,12,14,16,18,20,22,24,26,28,30,-1,-1,-1,-1,-1,-1,-1,-1,-1,-1,-1,-1,-1,-1,-1,-1],"split_conditions":[3E-1,1.3513513E-1,1E0,-4.64E2,3.6666667E-1,1.3513513E-1,1.8518518E-1,1.3513513E-1,1E0,4.642857E-1,1E0,1.3253E2,2E-1,5.813953E-1,2.1428572E-1,1.5345246E-2,3.5E-2,3.175422E-2,1.5566212E-2,5.8213416E-3,1.35771725E-2,7.7374205E-3,3.7960376E-4,8.200776E-3,3.2362096E-2,-7.952562E-3,-3.5741925E-3,-1.27313305E-2,-1.7457595E-2,-5.4680738E-3,-9.944278E-3],"split_indices":[1,2,4,1,2,2,3,3,4,3,4,1,3,2,2,0,0,0,0,0,0,0,0,0,0,0,0,0,0,0,0],"split_type":[0,0,0,0,0,0,0,0,0,0,0,0,0,0,0,0,0,0,0,0,0,0,0,0,0,0,0,0,0,0,0],"sum_hessian":[2.4369842E4,1.1891455E4,1.2478387E4,2.3654385E3,9.526017E3,3.5288335E3,8.949553E3,3.6936847E2,1.99607E3,3.62045E3,5.905567E3,2.434396E2,3.2853938E3,2.3971619E3,6.552391E3,1.8535503E1,3.5083295E2,4.4850977E2,1.5475603E3,2.1000947E3,1.5203551E3,1.8339988E3,4.071568E3,1.8306969E2,6.036992E1,6.691444E2,2.6162495E3,1.6649727E3,7.321892E2,1.5366031E3,5.015788E3],"tree_param":{"num_deleted":"0","num_feature":"5","num_nodes":"31","size_leaf_vector":"1"}},{"base_weights":[8.4926706E-4,3.5024923E-1,-9.4909E-2,7E-1,2.608685E-1,-5.451147E-3,-2.3313881E-1,3.5E-2,4.6618214E-1,4.5854095E-1,1.9966917E-1,9.433084E-2,-5.0850168E-2,-1.3187568E-1,-2.7006194E-1,2.9946163E-2,6.8266164E-3,3.5E-2,1.9199336E-2,1.6249917E-2,7.922097E-3,1.7981786E-2,3.2809393E-3,1.4180948E-3,-4.753575E-3,-3.187862E-3,-9.77677E-3,-1.137571E-2,-1.6748657E-2],"categories":[],"categories_nodes":[],"categories_segments":[],"categories_sizes":[],"default_left":[0,0,0,0,0,0,0,0,0,0,0,0,0,0,0,0,0,0,0,0,0,0,0,0,0,0,0,0,0],"id":2,"left_children":[1,3,5,7,9,11,13,-1,15,17,19,21,23,25,27,-1,-1,-1,-1,-1,-1,-1,-1,-1,-1,-1,-1,-1,-1],"loss_changes":[8.102788E2,2.2868188E2,2.3505087E2,5.699341E0,5.426303E1,5.228574E1,2.7888031E1,0E0,4.872156E0,2.1865646E1,1.7684937E1,2.74701E1,2.7789967E1,8.649364E0,1.503598E1,0E0,0E0,0E0,0E0,0E0,0E0,0E0,0E0,0E0,0E0,0E0,0E0,0E0,0E0],"parents":[2147483647,0,0,1,1,2,2,3,3,4,4,5,5,6,6,8,8,9,9,10,10,11,11,12,12,13,13,14,14],"right_children":[2,4,6,8,10,12,14,-1,16,18,20,22,24,26,28,-1,-1,-1,-1,-1,-1,-1,-1,-1,-1,-1,-1,-1,-1],"split_conditions":[-1.836E2,-4.915E2,1.358E2,3.6363637E-1,1.3513513E-1,1E0,1E0,3.5E-2,-5.186E2,1E0,1E0,1.3513513E-1,-6.32E1,2.241E2,3.212E2,2.9946163E-2,6.8266164E-3,3.5E-2,1.9199336E-2,1.6249917E-2,7.922097E-3,1.7981786E-2,3.2809393E-3,1.4180948E-3,-4.753575E-3,-3.187862E-3,-9.77677E-3,-1.137571E-2,-1.6748657E-2],"split_indices":[0,0,0,2,2,4,4,0,0,4,4,2,0,0,0,0,0,0,0,0,0,0,0,0,0,0,0,0,0],"split_type":[0,0,0,0,0,0,0,0,0,0,0,0,0,0,0,0,0,0,0,0,0,0,0,0,0,0,0,0,0],"sum_hessian":[2.4215848E4,5.2085146E3,1.9007332E4,7.164395E2,4.4920747E3,1.1540035E4,7.467297E3,6.042278E2,1.1221175E2,1.0604268E3,3.4316482E3,3.6083052E3,7.9317305E3,1.9964701E3,5.4708267E3,7.941615E1,3.2795593E1,2.178881E2,8.425387E2,8.4772253E2,2.5839255E3,3.5124152E2,3.2570635E3,2.8417556E3,5.0899746E3,9.6542664E2,1.0310435E3,3.3074065E3,2.1634204E3],"tree_param":{"num_deleted":"0","num_feature":"5","num_nodes":"29","size_leaf_vector":"1"}},{"base_weights":[6.448315E-4,3.4214675E-1,-9.486365E-2,7E-1,2.700249E-1,-7.805076E-3,-2.2897686E-1,7E-1,5.023766E-1,4.2750433E-1,2.1979326E-1,8.243668E-2,-4.799479E-2,-1.2697956E-1,-2.6719037E-1,2.8834376E-2,3.5E-2,1.2528642E-2,3.5E-2,1.6912602E-2,3.5E-2,1.5999354E-2,8.587005E-3,8.6324345E-3,-2.0098791E-4,1.205249E-3,-4.4683586E-3,-2.8772631E-3,-1.04768155E-2,-1.124344E-2,-1.6720787E-2],"categories":[],"categories_nodes":[],"categories_segments":[],"categories_sizes":[],"default_left":[0,0,0,0,0,0,0,0,0,0,0,0,0,0,0,0,0,0,0,0,0,0,0,0,0,0,0,0,0,0,0],"id":3,"left_children":[1,3,5,7,9,11,13,15,17,19,21,23,25,27,29,-1,-1,-1,-1,-1,-1,-1,-1,-1,-1,-1,-1,-1,-1,-1,-1],"loss_changes":[7.926292E2,1.7220166E2,2.2172572E2,3.1965942E0,3.639621E1,4.177158E1,2.9101562E1,9.5062256E-2,7.879547E0,3.3517456E1,1.6793411E1,2.7680094E1,2.3771729E1,1.1677139E1,1.5393188E1,0E0,0E0,0E0,0E0,0E0,0E0,0E0,0E0,0E0,0E0,0E0,0E0,0E0,0E0,0E0,0E0],"parents":[2147483647,0,0,1,1,2,2,3,3,4,4,5,5,6,6,7,7,8,8,9,9,10,10,11,11,12,12,13,13,14,14],"right_children":[2,4,6,8,10,12,14,16,18,20,22,24,26,28,30,-1,-1,-1,-1,-1,-1,-1,-1,-1,-1,-1,-1,-1,-1,-1,-1],"split_conditions":[-1.836E2,-4.915E2,1.344E2,-5.186E2,1E0,1E0,1E0,-1.35885E3,-1.948E2,-1.258E1,-3.384E2,-1.47E1,-6.32E1,2.339E2,3.212E2,2.8834376E-2,3.5E-2,1.2528642E-2,3.5E-2,1.6912602E-2,3.5E-2,1.5999354E-2,8.587005E-3,8.6324345E-3,-2.0098791E-4,1.205249E-3,-4.4683586E-3,-2.8772631E-3,-1.04768155E-2,-1.124344E-2,-1.6720787E-2],"split_indices":[0,0,0,0,4,4,4,1,1,1,0,0,0,0,0,0,0,0,0,0,0,0,0,0,0,0,0,0,0,0,0],"split_type":[0,0,0,0,0,0,0,0,0,0,0,0,0,0,0,0,0,0,0,0,0,0,0,0,0,0,0,0,0,0,0],"sum_hessian":[2.4299611E4,5.310108E3,1.8989504E4,6.9820746E2,4.611901E3,1.1515416E4,7.474088E3,6.0481287E2,9.339458E1,1.1134985E3,3.498402E3,3.5479094E3,7.967507E3,2.0381906E3,5.435897E3,3.747725E1,5.6733563E2,5.8688282E1,3.470629E1,8.912655E2,2.2223303E2,1.1321471E3,2.3662551E3,1.7357566E3,1.8121527E3,2.9051357E3,5.062371E3,1.1080027E3,9.301879E2,3.3384976E3,2.0973994E3],"tree_param":{"num_deleted":"0","num_feature":"5","num_nodes":"31","size_leaf_vector":"1"}},{"base_weights":[2.124748E-3,3.2554036E-1,-9.0511516E-2,7E-1,2.5635454E-1,-9.050082E-3,-2.3201436E-1,3.5E-2,3.9891213E-1,4.4441903E-1,1.9414212E-1,8.622263E-2,-5.2160773E-2,-1.3280262E-1,-2.6889378E-1,3.5E-2,1.0555199E-2,3.5E-2,1.828913E-2,1.5306964E-2,7.860588E-3,1.8903542E-2,2.717353E-3,1.1416966E-3,-4.4501713E-3,-4.1376366E-3,-9.710893E-3,-1.1122498E-2,-1.6846903E-2],"categories":[],"categories_nodes":[],"categories_segments":[],"categories_sizes":[],"default_left":[0,0,0,0,0,0,0,0,0,0,0,0,0,0,0,0,0,0,0,0,0,0,0,0,0,0,0,0,0],"id":4,"left_children":[1,3,5,7,9,11,13,-1,15,17,19,21,23,25,27,-1,-1,-1,-1,-1,-1,-1,-1,-1,-1,-1,-1,-1,-1],"loss_changes":[7.269909E2,1.8091412E2,2.1742725E2,1.6355591E0,5.5731323E1,4.917697E1,2.5179443E1,0E0,1.7402236E0,2.7752518E1,1.4786606E1,3.4679367E1,2.2777508E1,5.730484E0,1.579895E1,0E0,0E0,0E0,0E0,0E0,0E0,0E0,0E0,0E0,0E0,0E0,0E0,0E0,0E0],"parents":[2147483647,0,0,1,1,2,2,3,3,4,4,5,5,6,6,8,8,9,9,10,10,11,11,12,12,13,13,14,14],"right_children":[2,4,6,8,10,12,14,-1,16,18,20,22,24,26,28,-1,-1,-1,-1,-1,-1,-1,-1,-1,-1,-1,-1,-1,-1],"split_conditions":[-1.836E2,-5.186E2,1.487E2,5.3571427E-1,1.3513513E-1,1E0,1E0,3.5E-2,1E0,1E0,1E0,1.3513513E-1,-6.79E1,2.506E2,3.212E2,3.5E-2,1.0555199E-2,3.5E-2,1.828913E-2,1.5306964E-2,7.860588E-3,1.8903542E-2,2.717353E-3,1.1416966E-3,-4.4501713E-3,-4.1376366E-3,-9.710893E-3,-1.1122498E-2,-1.6846903E-2],"split_indices":[0,0,0,2,2,4,4,0,4,4,4,2,0,0,0,0,0,0,0,0,0,0,0,0,0,0,0,0,0],"split_type":[0,0,0,0,0,0,0,0,0,0,0,0,0,0,0,0,0,0,0,0,0,0,0,0,0,0,0,0,0],"sum_hessian":[2.4263393E4,5.40182E3,1.8861572E4,6.320578E2,4.7697617E3,1.1971051E4,6.8905225E3,6.0961096E2,2.244684E1,1.1841132E3,3.5856487E3,3.7290393E3,8.242012E3,1.8685133E3,5.022009E3,5.2233267E0,1.7223515E1,2.3923308E2,9.4488007E2,8.873453E2,2.6983035E3,3.661118E2,3.3629275E3,2.7152964E3,5.5267153E3,1.0308099E3,8.377033E2,2.9872922E3,2.0347167E3],"tree_param":{"num_deleted":"0","num_feature":"5","num_nodes":"29","size_leaf_vector":"1"}},{"base_weights":[-4.639479E-4,1.4859599E-1,-1.4977014E-1,3.9671046E-1,8.5183404E-2,-4.9459346E-2,-1.9154698E-1,2.9013073E-1,5.6379914E-1,1.7538543E-1,4.8515417E-2,3.3842868E-1,-7.626276E-2,-2.7319607E-1,-1.6178009E-1,3.1542253E-2,1.2845007E-2,3.5E-2,2.4854928E-2,1.6820362E-2,6.8807686E-3,6.1728633E-3,2.6457023E-4,2.2131938E-3,2.3053972E-2,-7.8553995E-3,-2.8064158E-3,-1.21436855E-2,-1.693903E-2,-4.4188052E-3,-9.147816E-3],"categories":[],"categories_nodes":[],"categories_segments":[],"categories_sizes":[],"default_left":[0,0,0,0,0,0,0,0,0,0,0,0,0,0,0,0,0,0,0,0,0,0,0,0,0,0,0,0,0,0,0],"id":5,"left_children":[1,3,5,7,9,11,13,15,17,19,21,23,25,27,29,-1,-1,-1,-1,-1,-1,-1,-1,-1,-1,-1,-1,-1,-1,-1,-1],"loss_changes":[5.42849E2,1.9200824E2,5.1056915E1,4.4077057E1,3.2149208E1,3.7289925E1,2.0863647E1,1.7034462E1,1.3284576E1,1.7041382E1,2.2395603E1,8.344568E0,5.449707E0,4.485489E0,9.787018E0,0E0,0E0,0E0,0E0,0E0,0E0,0E0,0E0,0E0,0E0,0E0,0E0,0E0,0E0,0E0,0E0],"parents":[2147483647,0,0,1,1,2,2,3,3,4,4,5,5,6,6,7,7,8,8,9,9,10,10,11,11,12,12,13,13,14,14],"right_children":[2,4,6,8,10,12,14,16,18,20,22,24,26,28,30,-1,-1,-1,-1,-1,-1,-1,-1,-1,-1,-1,-1,-1,-1,-1,-1],"split_conditions":[3E-1,1.3513513E-1,1E0,4.1935483E-1,1E0,1.3513513E-1,1.8518518E-1,-5.3212E2,1E0,2.1428572E-1,3.3333334E-1,2E-1,2E-1,5.714286E-1,2.0689656E-1,3.1542253E-2,1.2845007E-2,3.5E-2,2.4854928E-2,1.6820362E-2,6.8807686E-3,6.1728633E-3,2.6457023E-4,2.2131938E-3,2.3053972E-2,-7.8553995E-3,-2.8064158E-3,-1.21436855E-2,-1.693903E-2,-4.4188052E-3,-9.147816E-3],"split_indices":[1,2,4,3,4,2,3,1,4,2,2,3,3,2,2,0,0,0,0,0,0,0,0,0,0,0,0,0,0,0,0],"split_type":[0,0,0,0,0,0,0,0,0,0,0,0,0,0,0,0,0,0,0,0,0,0,0,0,0,0,0,0,0,0,0],"sum_hessian":[2.4389598E4,1.2204866E4,1.2184732E4,2.4832798E3,9.721587E3,3.583217E3,8.601515E3,1.5178411E3,9.654387E2,2.808641E3,6.9129453E3,2.3084831E2,3.352369E3,2.2958728E3,6.305642E3,1.3328465E2,1.3845564E3,1.9637833E2,7.690604E2,5.321339E2,2.276507E3,2.5280144E3,4.384931E3,6.8329094E1,1.6251921E2,6.670758E2,2.685293E3,1.5732151E3,7.2265765E2,1.4129725E3,4.8926694E3],"tree_param":{"num_deleted":"0","num_feature":"5","num_nodes":"31","size_leaf_vector":"1"}},{"base_weights":[1.4584804E-3,2.4021283E-1,-1.1364746E-1,7E-1,1.9318642E-1,-2.8502638E-2,-2.211458E-1,7E-1,2.55522E-1,2.626383E-1,1.0542646E-1,1.007992E-1,-4.5449436E-2,-1.5987073E-1,-2.717663E-1,2.960364E-2,3.5E-2,-4.6930206E-3,2.2911923E-2,1.1414141E-2,2.4392636E-2,1.1550625E-2,4.0211156E-3,1.3446132E-2,2.497933E-3,-2.2200459E-4,-4.531655E-3,-9.605172E-3,-5.1474674E-3,-1.2551233E-2,-1.9311022E-2],"categories":[],"categories_nodes":[],"categories_segments":[],"categories_sizes":[],"default_left":[0,0,0,0,0,0,0,0,0,0,0,0,0,0,0,0,0,0,0,0,0,0,0,0,0,0,0,0,0,0,0],"id":6,"left_children":[1,3,5,7,9,11,13,15,17,19,21,23,25,27,29,-1,-1,-1,-1,-1,-1,-1,-1,-1,-1,-1,-1,-1,-1,-1,-1],"loss_changes":[6.6518854E2,1.9171136E2,1.4947107E2,5.4718933E0,4.4029663E1,1.997608E1,2.234488E1,1.4433594E0,2.1803365E0,3.1104034E1,1.0014107E1,9.01641E0,1.4932102E1,5.975647E0,9.28302E0,0E0,0E0,0E0,0E0,0E0,0E0,0E0,0E0,0E0,0E0,0E0,0E0,0E0,0E0,0E0,0E0],"parents":[2147483647,0,0,1,1,2,2,3,3,4,4,5,5,6,6,7,7,8,8,9,9,10,10,11,11,12,12,13,13,14,14],"right_children":[2,4,6,8,10,12,14,16,18,20,22,24,26,28,30,-1,-1,-1,-1,-1,-1,-1,-1,-1,-1,-1,-1,-1,-1,-1,-1],"split_conditions":[-1.125E2,-5.186E2,1.344E2,5.3571427E-1,-2.156E2,1.3513513E-1,2.403E2,-9.5392E2,4.090909E-1,-1.317E1,1.5384616E-1,-6.32E1,2.3E1,2.4827E2,5.112E2,2.960364E-2,3.5E-2,-4.6930206E-3,2.2911923E-2,1.1414141E-2,2.4392636E-2,1.1550625E-2,4.0211156E-3,1.3446132E-2,2.497933E-3,-2.2200459E-4,-4.531655E-3,-9.605172E-3,-5.1474674E-3,-1.2551233E-2,-1.9311022E-2],"split_indices":[0,0,0,2,0,2,0,1,3,1,2,0,0,1,0,0,0,0,0,0,0,0,0,0,0,0,0,0,0,0,0],"split_type":[0,0,0,0,0,0,0,0,0,0,0,0,0,0,0,0,0,0,0,0,0,0,0,0,0,0,0,0,0,0,0],"sum_hessian":[2.4202488E4,7.8723867E3,1.6330102E4,6.450581E2,7.2273286E3,9.113194E3,7.2169062E3,6.1588074E2,2.9177324E1,4.0333801E3,3.1939485E3,1.0554329E3,8.057762E3,3.2667427E3,3.9501636E3,1.6498102E2,4.5089972E2,1.0910328E1,1.8266996E1,3.5012874E3,5.320926E2,5.2895844E2,2.66499E3,2.4406158E2,8.113712E2,4.224575E3,3.8331868E3,2.0841704E3,1.1825723E3,3.3468354E3,6.0332806E2],"tree_param":{"num_deleted":"0","num_feature":"5","num_nodes":"31","size_leaf_vector":"1"}},{"base_weights":[1.0937919E-3,1.409142E-1,-1.4185853E-1,3.6969852E-1,8.233105E-2,-4.4183068E-2,-1.8306385E-1,6.0703677E-1,3.22644E-1,1.6389662E-1,4.9043152E-2,2.6234868E-1,-6.785828E-2,-2.6755413E-1,-1.5597142E-1,6.3029616E-3,3.1335842E-2,2.7054189E-2,1.29560325E-2,3.3519163E-3,1.0017476E-2,6.47816E-3,5.927799E-4,6.853074E-3,2.2287695E-2,-3.8292583E-3,4.928282E-3,-1.1634989E-2,-1.7206548E-2,-4.489494E-3,-8.806833E-3],"categories":[],"categories_nodes":[],"categories_segments":[],"categories_sizes":[],"default_left":[0,0,0,0,0,0,0,0,0,0,0,0,0,0,0,0,0,0,0,0,0,0,0,0,0,0,0,0,0,0,0],"id":7,"left_children":[1,3,5,7,9,11,13,15,17,19,21,23,25,27,29,-1,-1,-1,-1,-1,-1,-1,-1,-1,-1,-1,-1,-1,-1,-1,-1],"loss_changes":[4.8591653E2,1.6469186E2,4.837262E1,2.7781586E1,2.656202E1,2.591031E1,1.9309753E1,3.8338013E0,2.8899765E1,9.9991E0,2.0812332E1,5.8216457E0,4.818967E0,5.39476E0,8.530365E0,0E0,0E0,0E0,0E0,0E0,0E0,0E0,0E0,0E0,0E0,0E0,0E0,0E0,0E0,0E0,0E0],"parents":[2147483647,0,0,1,1,2,2,3,3,4,4,5,5,6,6,7,7,8,8,9,9,10,10,11,11,12,12,13,13,14,14],"right_children":[2,4,6,8,10,12,14,16,18,20,22,24,26,28,30,-1,-1,-1,-1,-1,-1,-1,-1,-1,-1,-1,-1,-1,-1,-1,-1],"split_conditions":[3E-1,1.3513513E-1,1E0,-4.64E2,1E0,1.3513513E-1,1.764706E-1,1.3513513E-1,1E0,3.7037036E-1,2.3529412E-1,3.9583334E-1,8.076923E-1,5.813953E-1,2.1428572E-1,6.3029616E-3,3.1335842E-2,2.7054189E-2,1.29560325E-2,3.3519163E-3,1.0017476E-2,6.47816E-3,5.927799E-4,6.853074E-3,2.2287695E-2,-3.8292583E-3,4.928282E-3,-1.1634989E-2,-1.7206548E-2,-4.489494E-3,-8.806833E-3],"split_indices":[1,2,4,1,4,2,3,3,4,3,2,3,3,2,2,0,0,0,0,0,0,0,0,0,0,0,0,0,0,0,0],"split_type":[0,0,0,0,0,0,0,0,0,0,0,0,0,0,0,0,0,0,0,0,0,0,0,0,0,0,0,0,0,0,0],"sum_hessian":[2.4308834E4,1.2289043E4,1.2019791E4,2.5041797E3,9.784864E3,3.5668352E3,8.452956E3,4.1236307E2,2.0918167E3,2.834803E3,6.950061E3,2.550125E2,3.3118225E3,2.0502341E3,6.402722E3,1.6500492E1,3.9586258E2,4.6957062E2,1.622246E3,7.7593085E2,2.058872E3,2.1949592E3,4.7551016E3,1.5255019E2,1.024623E2,3.1473242E3,1.6449849E2,1.4117207E3,6.385133E2,1.4965502E3,4.906172E3],"tree_param":{"num_deleted":"0","num_feature":"5","num_nodes":"31","size_leaf_vector":"1"}},{"base_weights":[4.3172276E-4,2.4079658E-1,-1.0384942E-1,7E-1,1.9026524E-1,-2.4409411E-2,-2.1175767E-1,5.677613E-1,7E-1,3.2668203E-1,1.41353E-1,5.891248E-2,-6.394376E-2,-1.7636418E-1,-3.1889015E-1,3.5E-2,2.3075096E-2,2.8361699E-2,3.5E-2,2.0407623E-2,1.1071956E-2,1.1554332E-2,3.9019536E-3,6.4990185E-3,3.6960375E-4,-1.8508956E-3,-6.7200027E-3,-4.3809297E-3,-1.090281E-2,-1.4569968E-2,-2.150156E-2],"categories":[],"categories_nodes":[],"categories_segments":[],"categories_sizes":[],"default_left":[0,0,0,0,0,0,0,0,0,0,0,0,0,0,0,0,0,0,0,0,0,0,0,0,0,0,0,0,0,0,0],"id":8,"left_children":[1,3,5,7,9,11,13,15,17,19,21,23,25,27,29,-1,-1,-1,-1,-1,-1,-1,-1,-1,-1,-1,-1,-1,-1,-1,-1],"loss_changes":[6.091315E2,1.7653235E2,1.4528159E2,6.145996E0,4.431732E1,3.216414E1,2.7193298E1,1.053038E1,1.8615723E-2,1.4948593E1,2.7796722E1,1.150411E1,1.2557341E1,1.997583E1,5.3235016E0,0E0,0E0,0E0,0E0,0E0,0E0,0E0,0E0,0E0,0E0,0E0,0E0,0E0,0E0,0E0,0E0],"parents":[2147483647,0,0,1,1,2,2,3,3,4,4,5,5,6,6,7,7,8,8,9,9,10,10,11,11,12,12,13,13,14,14],"right_children":[2,4,6,8,10,12,14,16,18,20,22,24,26,28,30,-1,-1,-1,-1,-1,-1,-1,-1,-1,-1,-1,-1,-1,-1,-1,-1],"split_conditions":[-1.308E2,-5.186E2,1.312E2,-2.7172E2,1E0,1E0,3.589E2,-7.566E2,1.6129032E-1,-2.115E2,-2.81E2,-1.47E1,5.75E1,1E0,5.756E2,3.5E-2,2.3075096E-2,2.8361699E-2,3.5E-2,2.0407623E-2,1.1071956E-2,1.1554332E-2,3.9019536E-3,6.4990185E-3,3.6960375E-4,-1.8508956E-3,-6.7200027E-3,-4.3809297E-3,-1.090281E-2,-1.4569968E-2,-2.150156E-2],"split_indices":[0,0,0,1,4,4,0,0,3,0,0,0,0,4,0,0,0,0,0,0,0,0,0,0,0,0,0,0,0,0,0],"split_type":[0,0,0,0,0,0,0,0,0,0,0,0,0,0,0,0,0,0,0,0,0,0,0,0,0,0,0,0,0,0,0],"sum_hessian":[2.4299568E4,7.3520376E3,1.6947531E4,7.0428894E2,6.6477485E3,9.762092E3,7.18544E3,3.7847845E2,3.2581052E2,1.7529825E3,4.894766E3,3.1412207E3,6.620871E3,5.403068E3,1.7823721E3,6.907186E1,3.094066E2,2.7855076E1,2.9795544E2,9.864647E2,7.665179E2,2.0238088E3,2.870957E3,1.3195265E3,1.8216941E3,4.7913257E3,1.8295457E3,1.7279833E3,3.6750845E3,1.43183E3,3.505421E2],"tree_param":{"num_deleted":"0","num_feature":"5","num_nodes":"31","size_leaf_vector":"1"}},{"base_weights":[1.2793919E-3,1.6143772E-1,-1.4892313E-1,4.4982803E-1,1.0269056E-1,-9.9376254E-2,-2.6144353E-1,6.93494E-1,3.4009022E-1,2.0701343E-1,5.9330083E-2,-2.8586179E-2,-1.3505553E-1,-2.4473569E-1,-4.3360743E-1,2.3631116E-2,3.5E-2,1.47466725E-2,3.3325586E-2,1.5226145E-2,8.60842E-3,7.6388754E-3,-1.20985635E-4,-1.8850606E-3,8.1611825E-3,-3.7433363E-3,-9.383349E-3,-8.581546E-3,-1.3349439E-2,-2.2028595E-2,-1.50151355E-2],"categories":[],"categories_nodes":[],"categories_segments":[],"categories_sizes":[],"default_left":[0,0,0,0,0,0,0,0,0,0,0,0,0,0,0,0,0,0,0,0,0,0,0,0,0,0,0,0,0,0,0],"id":9,"left_children":[1,3,5,7,9,11,13,15,17,19,21,23,25,27,29,-1,-1,-1,-1,-1,-1,-1,-1,-1,-1,-1,-1,-1,-1,-1,-1],"loss_changes":[5.8248676E2,1.9848877E2,6.963501E1,5.278427E1,4.403103E1,2.1911438E1,1.088031E1,6.279785E0,1.9984222E1,9.659271E0,3.969628E1,5.0920644E0,1.8253563E1,5.6216583E0,1.8017197E-1,0E0,0E0,0E0,0E0,0E0,0E0,0E0,0E0,0E0,0E0,0E0,0E0,0E0,0E0,0E0,0E0],"parents":[2147483647,0,0,1,1,2,2,3,3,4,4,5,5,6,6,7,7,8,8,9,9,10,10,11,11,12,12,13,13,14,14],"right_children":[2,4,6,8,10,12,14,16,18,20,22,24,26,28,30,-1,-1,-1,-1,-1,-1,-1,-1,-1,-1,-1,-1,-1,-1,-1,-1],"split_conditions":[-1.47E1,-3.65E2,2.403E2,-5.397E2,1E0,1E0,5.756E2,-9.5392E2,-1.398E1,-2.115E2,-1.836E2,8.125E-1,9.12E1,1E0,5.714286E-1,2.3631116E-2,3.5E-2,1.47466725E-2,3.3325586E-2,1.5226145E-2,8.60842E-3,7.6388754E-3,-1.20985635E-4,-1.8850606E-3,8.1611825E-3,-3.7433363E-3,-9.383349E-3,-8.581546E-3,-1.3349439E-2,-2.2028595E-2,-1.50151355E-2],"split_indices":[0,0,0,0,4,4,0,1,1,0,0,3,0,4,3,0,0,0,0,0,0,0,0,0,0,0,0,0,0,0,0],"split_type":[0,0,0,0,0,0,0,0,0,0,0,0,0,0,0,0,0,0,0,0,0,0,0,0,0,0,0,0,0,0,0],"sum_hessian":[2.4211596E4,1.171743E4,1.2494166E4,1.981851E3,9.735579E3,8.675782E3,3.8183835E3,6.137461E2,1.368105E3,2.8573005E3,6.8782783E3,2.9079724E3,5.76781E3,3.4828115E3,3.35572E2,1.3044406E2,4.83302E2,1.2035155E3,1.6458945E2,7.5020514E2,2.1070955E3,2.7361394E3,4.1421387E3,2.776818E3,1.311543E2,2.6913088E3,3.0765015E3,8.1479626E2,2.6680151E3,3.167201E2,1.8851915E1],"tree_param":{"num_deleted":"0","num_feature":"5","num_nodes":"31","size_leaf_vector":"1"}},{"base_weights":[2.199645E-3,1.2596446E-1,-1.4050329E-1,3.1252918E-1,7.516938E-2,-4.245262E-2,-1.8191189E-1,2.3076347E-1,4.7034764E-1,-1.4265972E-2,1.0755455E-1,2.9543495E-1,-6.632062E-2,-2.598812E-1,-1.5380506E-1,1.39976395E-2,2.5389881E-3,3.5E-2,1.9617653E-2,3.4110285E-3,-2.1465372E-3,9.343337E-3,3.7351416E-3,9.544577E-3,2.7003476E-2,-3.869308E-3,6.849307E-3,-1.1364818E-2,-1.6436072E-2,-3.7599166E-3,-8.73702E-3],"categories":[],"categories_nodes":[],"categories_segments":[],"categories_sizes":[],"default_left":[0,0,0,0,0,0,0,0,0,0,0,0,0,0,0,0,0,0,0,0,0,0,0,0,0,0,0,0,0,0,0],"id":10,"left_children":[1,3,5,7,9,11,13,15,17,19,21,23,25,27,29,-1,-1,-1,-1,-1,-1,-1,-1,-1,-1,-1,-1,-1,-1,-1,-1],"loss_changes":[4.2638748E2,1.2249835E2,4.5519196E1,3.5590424E1,2.9438717E1,2.6880999E1,1.7236267E1,1.6136757E1,1.9643173E1,6.3935065E0,1.9427765E1,5.521841E0,7.0112076E0,4.6076508E0,9.526733E0,0E0,0E0,0E0,0E0,0E0,0E0,0E0,0E0,0E0,0E0,0E0,0E0,0E0,0E0,0E0,0E0],"parents":[2147483647,0,0,1,1,2,2,3,3,4,4,5,5,6,6,7,7,8,8,9,9,10,10,11,11,12,12,13,13,14,14],"right_children":[2,4,6,8,10,12,14,16,18,20,22,24,26,28,30,-1,-1,-1,-1,-1,-1,-1,-1,-1,-1,-1,-1,-1,-1,-1,-1],"split_conditions":[1.665E0,1.3513513E-1,1E0,4.642857E-1,3.1578946E-1,1.4705883E-1,1.8604651E-1,-5.73E0,1E0,1E0,2.580645E-1,1.3253E2,8.076923E-1,5.714286E-1,2.0833333E-1,1.39976395E-2,2.5389881E-3,3.5E-2,1.9617653E-2,3.4110285E-3,-2.1465372E-3,9.343337E-3,3.7351416E-3,9.544577E-3,2.7003476E-2,-3.869308E-3,6.849307E-3,-1.1364818E-2,-1.6436072E-2,-3.7599166E-3,-8.73702E-3],"split_indices":[1,2,4,3,3,2,3,1,4,4,2,1,3,2,2,0,0,0,0,0,0,0,0,0,0,0,0,0,0,0,0],"split_type":[0,0,0,0,0,0,0,0,0,0,0,0,0,0,0,0,0,0,0,0,0,0,0,0,0,0,0,0,0,0,0],"sum_hessian":[2.4140059E4,1.2927921E4,1.1212138E4,2.765477E3,1.0162444E4,3.329737E3,7.8824004E3,1.8232921E3,9.4218494E2,2.7017666E3,7.4606772E3,2.1893956E2,3.1107974E3,2.0864019E3,5.795999E3,1.4315074E3,3.9178464E2,2.0489235E2,7.372926E2,6.9640173E2,2.005365E3,2.1837861E3,5.276891E3,1.5463664E2,6.430292E1,2.9508108E3,1.5998671E2,1.4190234E3,6.673784E2,1.2199598E3,4.576039E3],"tree_param":{"num_deleted":"0","num_feature":"5","num_nodes":"31","size_leaf_vector":"1"}},{"base_weights":[-9.468975E-4,2.1652684E-1,-9.9217206E-2,6.395119E-1,1.6852057E-1,-2.2774154E-2,-2.0794281E-1,7E-1,5.107646E-1,3.0409724E-1,1.2510972E-1,4.4222288E-2,-5.0202154E-2,-1.6650143E-1,-2.8189623E-1,3.5E-2,-3.132411E-3,1.7068177E-2,3.5E-2,1.3810224E-2,3.5E-2,1.0614924E-2,3.8936145E-3,7.6747737E-3,6.649019E-4,-4.771926E-3,-1.118052E-3,-9.868785E-3,-5.172535E-3,-1.3047888E-2,-2.1001784E-2],"categories":[],"categories_nodes":[],"categories_segments":[],"categories_sizes":[],"default_left":[0,0,0,0,0,0,0,0,0,0,0,0,0,0,0,0,0,0,0,0,0,0,0,0,0,0,0,0,0,0,0],"id":11,"left_children":[1,3,5,7,9,11,13,15,17,19,21,23,25,27,29,-1,-1,-1,-1,-1,-1,-1,-1,-1,-1,-1,-1,-1,-1,-1,-1],"loss_changes":[5.15896E2,1.5245316E2,1.3818457E2,1.5137817E1,3.9681366E1,1.7943968E1,2.0988892E1,7.145462E0,1.7781525E1,2.0192078E1,2.1044197E1,9.583633E0,8.723358E0,8.547348E0,7.0160217E0,0E0,0E0,0E0,0E0,0E0,0E0,0E0,0E0,0E0,0E0,0E0,0E0,0E0,0E0,0E0,0E0],"parents":[2147483647,0,0,1,1,2,2,3,3,4,4,5,5,6,6,7,7,8,8,9,9,10,10,11,11,12,12,13,13,14,14],"right_children":[2,4,6,8,10,12,14,16,18,20,22,24,26,28,30,-1,-1,-1,-1,-1,-1,-1,-1,-1,-1,-1,-1,-1,-1,-1,-1],"split_conditions":[-1.308E2,-5.186E2,1.344E2,-6.723E2,1.5384616E-1,2.1428572E-1,3.108E2,3.8636363E-1,-2.3337E2,-1.05E0,-2.875E2,-4.838E1,3.902439E-1,4.3243244E-1,5.756E2,3.5E-2,-3.132411E-3,1.7068177E-2,3.5E-2,1.3810224E-2,3.5E-2,1.0614924E-2,3.8936145E-3,7.6747737E-3,6.649019E-4,-4.771926E-3,-1.118052E-3,-9.868785E-3,-5.172535E-3,-1.3047888E-2,-2.1001784E-2],"split_indices":[0,0,0,0,2,2,0,2,1,1,0,1,3,3,0,0,0,0,0,0,0,0,0,0,0,0,0,0,0,0,0],"split_type":[0,0,0,0,0,0,0,0,0,0,0,0,0,0,0,0,0,0,0,0,0,0,0,0,0,0,0,0,0,0,0],"sum_hessian":[2.413776E4,7.5121196E3,1.662564E4,7.644245E2,6.747695E3,9.762799E3,6.8628423E3,2.5081026E2,5.1361426E2,1.6350999E3,5.112595E3,2.8356772E3,6.9271216E3,4.400295E3,2.462547E3,2.3868259E2,1.2127676E1,2.8433554E2,2.2927869E2,1.5419767E3,9.312316E1,1.7953405E3,3.3172546E3,6.246093E2,2.2110679E3,2.638175E3,4.2889463E3,2.9524363E3,1.4478589E3,2.1409253E3,3.2162183E2],"tree_param":{"num_deleted":"0","num_feature":"5","num_nodes":"31","size_leaf_vector":"1"}},{"base_weights":[3.0618655E-3,1.2048382E-1,-1.3754192E-1,3.0385643E-1,7.001199E-2,-4.7660165E-2,-1.7662631E-1,2.1333867E-1,4.3599448E-1,-1.6609283E-2,9.988692E-2,2.2182834E-1,-6.627287E-2,-2.5460452E-1,-1.4619976E-1,1.9031301E-2,8.175268E-3,3.2995448E-2,1.8264089E-2,3.0287658E-3,-2.1299624E-3,8.859562E-3,3.1427813E-3,5.127889E-3,2.490822E-2,-3.8027854E-3,5.2000345E-3,-1.1349882E-2,-1.594805E-2,-3.358192E-3,-8.443625E-3],"categories":[],"categories_nodes":[],"categories_segments":[],"categories_sizes":[],"default_left":[0,0,0,0,0,0,0,0,0,0,0,0,0,0,0,0,0,0,0,0,0,0,0,0,0,0,0,0,0,0,0],"id":12,"left_children":[1,3,5,7,9,11,13,15,17,19,21,23,25,27,29,-1,-1,-1,-1,-1,-1,-1,-1,-1,-1,-1,-1,-1,-1,-1,-1],"loss_changes":[4.007321E2,1.2239093E2,3.8794968E1,3.404831E1,2.6844868E1,1.6812382E1,1.8226715E1,1.4076027E1,1.8117493E1,5.340532E0,2.206874E1,7.0872355E0,5.2272243E0,3.763916E0,9.915405E0,0E0,0E0,0E0,0E0,0E0,0E0,0E0,0E0,0E0,0E0,0E0,0E0,0E0,0E0,0E0,0E0],"parents":[2147483647,0,0,1,1,2,2,3,3,4,4,5,5,6,6,7,7,8,8,9,9,10,10,11,11,12,12,13,13,14,14],"right_children":[2,4,6,8,10,12,14,16,18,20,22,24,26,28,30,-1,-1,-1,-1,-1,-1,-1,-1,-1,-1,-1,-1,-1,-1,-1,-1],"split_conditions":[1.665E0,1.3513513E-1,1E0,4.1935483E-1,2.857143E-1,1.3513513E-1,1.923077E-1,1E0,1E0,1E0,3.3333334E-1,1.3253E2,8.076923E-1,5.813953E-1,2.0689656E-1,1.9031301E-2,8.175268E-3,3.2995448E-2,1.8264089E-2,3.0287658E-3,-2.1299624E-3,8.859562E-3,3.1427813E-3,5.127889E-3,2.490822E-2,-3.8027854E-3,5.2000345E-3,-1.1349882E-2,-1.594805E-2,-3.358192E-3,-8.443625E-3],"split_indices":[1,2,4,3,3,2,3,4,4,4,2,1,3,2,2,0,0,0,0,0,0,0,0,0,0,0,0,0,0,0,0],"split_type":[0,0,0,0,0,0,0,0,0,0,0,0,0,0,0,0,0,0,0,0,0,0,0,0,0,0,0,0,0,0,0],"sum_hessian":[2.4270121E4,1.322539E4,1.1044731E4,2.8534197E3,1.037197E4,3.3478804E3,7.6968506E3,1.6949514E3,1.1584681E3,2.6599592E3,7.7120107E3,2.1558356E2,3.1322966E3,2.158248E3,5.5386025E3,3.875E2,1.3074514E3,2.7604123E2,8.8242694E2,6.6971606E2,1.990243E3,2.4965588E3,5.2154517E3,1.515455E2,6.4038055E1,2.9626357E3,1.6966096E2,1.5135225E3,6.4472565E2,1.2355394E3,4.303063E3],"tree_param":{"num_deleted":"0","num_feature":"5","num_nodes":"31","size_leaf_vector":"1"}},{"base_weights":[-1.4590321E-3,2.0573191E-1,-9.740806E-2,5.872717E-1,1.6259192E-1,-2.7850814E-2,-2.0982777E-1,7E-1,4.8710304E-1,3.0168363E-1,1.1945706E-1,3.9838713E-2,-6.0258333E-2,-1.7313111E-1,-3.0917028E-1,-6.7526526E-3,3.5E-2,3.5E-2,2.0847017E-2,2.6474243E-2,1.1932704E-2,1.0293761E-2,4.3319217E-3,1.138896E-2,9.1155147E-4,-1.6399414E-3,-6.3940147E-3,-4.472915E-3,-1.0632596E-2,-1.4071043E-2,-2.109942E-2],"categories":[],"categories_nodes":[],"categories_segments":[],"categories_sizes":[],"default_left":[0,0,0,0,0,0,0,0,0,0,0,0,0,0,0,0,0,0,0,0,0,0,0,0,0,0,0,0,0,0,0],"id":13,"left_children":[1,3,5,7,9,11,13,15,17,19,21,23,25,27,29,-1,-1,-1,-1,-1,-1,-1,-1,-1,-1,-1,-1,-1,-1,-1,-1],"loss_changes":[4.839829E2,1.2673868E2,1.3011017E2,1.855893E1,4.1508194E1,2.2554548E1,2.3132324E1,4.132477E0,1.341597E1,2.3398361E1,1.4976662E1,1.3515091E1,1.2905806E1,1.5346771E1,5.2482758E0,0E0,0E0,0E0,0E0,0E0,0E0,0E0,0E0,0E0,0E0,0E0,0E0,0E0,0E0,0E0,0E0],"parents":[2147483647,0,0,1,1,2,2,3,3,4,4,5,5,6,6,7,7,8,8,9,9,10,10,11,11,12,12,13,13,14,14],"right_children":[2,4,6,8,10,12,14,16,18,20,22,24,26,28,30,-1,-1,-1,-1,-1,-1,-1,-1,-1,-1,-1,-1,-1,-1,-1,-1],"split_conditions":[-1.308E2,-5.186E2,1.508E2,1E0,1.3513513E-1,1E0,3.589E2,1.3513513E-1,-7.566E2,1E0,1E0,1.3513513E-1,5.813953E-1,1E0,5.756E2,-6.7526526E-3,3.5E-2,3.5E-2,2.0847017E-2,2.6474243E-2,1.1932704E-2,1.0293761E-2,4.3319217E-3,1.138896E-2,9.1155147E-4,-1.6399414E-3,-6.3940147E-3,-4.472915E-3,-1.0632596E-2,-1.4071043E-2,-2.109942E-2],"split_indices":[0,0,0,4,2,4,0,3,0,4,4,2,2,4,0,0,0,0,0,0,0,0,0,0,0,0,0,0,0,0,0],"split_type":[0,0,0,0,0,0,0,0,0,0,0,0,0,0,0,0,0,0,0,0,0,0,0,0,0,0,0,0,0,0,0],"sum_hessian":[2.434349E4,7.7047725E3,1.6638717E4,7.813879E2,6.923385E3,1.0279652E4,6.3590645E3,1.4275787E2,6.3863E2,1.637416E3,5.2859688E3,3.3280764E3,6.951576E3,4.645706E3,1.7133588E3,5.6289673E0,1.371289E2,1.0423553E2,5.343945E2,3.5326093E2,1.284155E3,1.4534541E3,3.8325144E3,3.4219266E2,2.9858838E3,4.9450186E3,2.0065576E3,1.4914005E3,3.1543054E3,1.3779294E3,3.354293E2],"tree_param":{"num_deleted":"0","num_feature":"5","num_nodes":"31","size_leaf_vector":"1"}},{"base_weights":[4.4292267E-3,2.0427293E-1,-9.184967E-2,6.133349E-1,1.6287132E-1,-2.5336845E-2,-2.0618583E-1,7E-1,4.8595104E-1,2.5645992E-1,1.1684065E-1,4.6572067E-2,-5.9891075E-2,-1.7034541E-1,-3.0948034E-1,2.278908E-3,3.5E-2,1.9009208E-2,3.5E-2,9.824997E-3,2.028875E-2,1.1872802E-2,3.4432902E-3,6.9419555E-3,6.13391E-4,-1.5200616E-3,-6.0840654E-3,-4.29826E-3,-1.0547988E-2,-1.851592E-2,-1.28873335E-2],"categories":[],"categories_nodes":[],"categories_segments":[],"categories_sizes":[],"default_left":[0,0,0,0,0,0,0,0,0,0,0,0,0,0,0,0,0,0,0,0,0,0,0,0,0,0,0,0,0,0,0],"id":14,"left_children":[1,3,5,7,9,11,13,15,17,19,21,23,25,27,29,-1,-1,-1,-1,-1,-1,-1,-1,-1,-1,-1,-1,-1,-1,-1,-1],"loss_changes":[4.680925E2,1.3386023E2,1.24853485E2,1.3726044E1,3.0919388E1,2.5797398E1,2.2301544E1,4.3258514E0,1.3573502E1,2.111824E1,2.7860283E1,1.0664601E1,1.2773861E1,1.5352295E1,4.796158E0,0E0,0E0,0E0,0E0,0E0,0E0,0E0,0E0,0E0,0E0,0E0,0E0,0E0,0E0,0E0,0E0],"parents":[2147483647,0,0,1,1,2,2,3,3,4,4,5,5,6,6,7,7,8,8,9,9,10,10,11,11,12,12,13,13,14,14],"right_children":[2,4,6,8,10,12,14,16,18,20,22,24,26,28,30,-1,-1,-1,-1,-1,-1,-1,-1,-1,-1,-1,-1,-1,-1,-1,-1],"split_conditions":[-1.308E2,-5.397E2,1.55E2,-6.723E2,-3.103E2,1E0,3.679E2,-1.35885E3,-5.695E1,-1.021E2,1E0,-3.855E1,5.75E1,1E0,1.8604651E-1,2.278908E-3,3.5E-2,1.9009208E-2,3.5E-2,9.824997E-3,2.028875E-2,1.1872802E-2,3.4432902E-3,6.9419555E-3,6.13391E-4,-1.5200616E-3,-6.0840654E-3,-4.29826E-3,-1.0547988E-2,-1.851592E-2,-1.28873335E-2],"split_indices":[0,0,0,0,0,4,0,1,1,1,4,1,0,4,3,0,0,0,0,0,0,0,0,0,0,0,0,0,0,0,0],"split_type":[0,0,0,0,0,0,0,0,0,0,0,0,0,0,0,0,0,0,0,0,0,0,0,0,0,0,0,0,0,0,0],"sum_hessian":[2.4326232E4,7.9088687E3,1.6417363E4,7.2562573E2,7.183243E3,1.0380141E4,6.037222E3,2.9723035E2,4.2839542E2,2.366715E3,4.816528E3,3.3689194E3,7.011221E3,4.4840327E3,1.5531896E3,1.0244921E1,2.869854E2,3.2884335E2,9.9552055E1,1.6902733E3,6.764418E2,1.3694904E3,3.4470374E3,9.122425E2,2.456677E3,4.747117E3,2.2641042E3,1.4580044E3,3.0260283E3,7.109568E2,8.422328E2],"tree_param":{"num_deleted":"0","num_feature":"5","num_nodes":"31","size_leaf_vector":"1"}},{"base_weights":[3.1323268E-3,1.0914428E-1,-1.3009149E-1,2.7124453E-1,6.35943E-2,-4.1078802E-2,-1.6814798E-1,1.958513E-1,4.01497E-1,1.4283094E-1,2.9946575E-2,2.0395033E-1,-5.888247E-2,-2.5200418E-1,-1.3915792E-1,1.6170781E-2,7.869334E-3,2.9370585E-2,1.7383453E-2,2.53366E-3,9.147107E-3,-2.0774635E-3,2.8383033E-3,1.1841092E-2,-1.5301548E-2,-3.4401268E-3,5.698896E-3,-1.08644245E-2,-1.6569545E-2,-3.5607535E-3,-7.954824E-3],"categories":[],"categories_nodes":[],"categories_segments":[],"categories_sizes":[],"default_left":[0,0,0,0,0,0,0,0,0,0,0,0,0,0,0,0,0,0,0,0,0,0,0,0,0,0,0,0,0,0,0],"id":15,"left_children":[1,3,5,7,9,11,13,15,17,19,21,23,25,27,29,-1,-1,-1,-1,-1,-1,-1,-1,-1,-1,-1,-1,-1,-1,-1,-1],"loss_changes":[3.4172583E2,9.94702E1,3.6313522E1,2.8943268E1,2.8042519E1,1.4026102E1,1.8222687E1,9.143356E0,1.0629028E1,1.1580753E1,1.4163543E1,3.7241192E0,5.1447115E0,5.241989E0,7.5521545E0,0E0,0E0,0E0,0E0,0E0,0E0,0E0,0E0,0E0,0E0,0E0,0E0,0E0,0E0,0E0,0E0],"parents":[2147483647,0,0,1,1,2,2,3,3,4,4,5,5,6,6,7,7,8,8,9,9,10,10,11,11,12,12,13,13,14,14],"right_children":[2,4,6,8,10,12,14,16,18,20,22,24,26,28,30,-1,-1,-1,-1,-1,-1,-1,-1,-1,-1,-1,-1,-1,-1,-1,-1],"split_conditions":[1.92E0,1.3513513E-1,1E0,4.473684E-1,1E0,1.3513513E-1,1.8518518E-1,1E0,1E0,3.7037036E-1,2.857143E-1,3.416E2,8.076923E-1,5.813953E-1,2.1428572E-1,1.6170781E-2,7.869334E-3,2.9370585E-2,1.7383453E-2,2.53366E-3,9.147107E-3,-2.0774635E-3,2.8383033E-3,1.1841092E-2,-1.5301548E-2,-3.4401268E-3,5.698896E-3,-1.08644245E-2,-1.6569545E-2,-3.5607535E-3,-7.954824E-3],"split_indices":[1,2,4,3,4,2,3,4,4,3,3,1,3,2,2,0,0,0,0,0,0,0,0,0,0,0,0,0,0,0,0],"split_type":[0,0,0,0,0,0,0,0,0,0,0,0,0,0,0,0,0,0,0,0,0,0,0,0,0,0,0,0,0,0,0],"sum_hessian":[2.4193857E4,1.3472994E4,1.0720863E4,2.954338E3,1.0518656E4,3.2114602E3,7.509403E3,1.8728129E3,1.081525E3,3.1343545E3,7.3843013E3,2.1682845E2,2.9946318E3,1.9271805E3,5.582222E3,4.3216608E2,1.4406467E3,2.4060269E2,8.4092236E2,9.511946E2,2.18316E3,2.0142175E3,5.370084E3,2.0420195E2,1.2626482E1,2.832673E3,1.619587E2,1.3434357E3,5.8374493E2,1.2675339E3,4.3146885E3],"tree_param":{"num_deleted":"0","num_feature":"5","num_nodes":"31","size_leaf_vector":"1"}},{"base_weights":[-2.730539E-4,1.0013568E-1,-1.2939698E-1,2.4511574E-1,5.90638E-2,-4.3747988E-2,-1.668437E-1,1.7357506E-1,3.7443846E-1,-2.2231339E-2,8.7811634E-2,1.9952248E-1,-6.05049E-2,-2.4512802E-1,-1.4026913E-1,2.1496529E-2,7.298534E-3,2.6746169E-2,1.6387062E-2,3.2502227E-3,-2.414283E-3,8.648078E-3,3.0190116E-3,-3.1153385E-3,1.51836695E-2,-3.5767853E-3,7.1441964E-3,-1.0600852E-2,-1.5597278E-2,-3.3067258E-3,-8.047017E-3],"categories":[],"categories_nodes":[],"categories_segments":[],"categories_sizes":[],"default_left":[0,0,0,0,0,0,0,0,0,0,0,0,0,0,0,0,0,0,0,0,0,0,0,0,0,0,0,0,0,0,0],"id":16,"left_children":[1,3,5,7,9,11,13,15,17,19,21,23,25,27,29,-1,-1,-1,-1,-1,-1,-1,-1,-1,-1,-1,-1,-1,-1,-1,-1],"loss_changes":[3.1312326E2,8.0886215E1,3.387712E1,2.7680435E1,2.474752E1,1.3119014E1,1.5257599E1,1.3613823E1,7.8228455E0,6.291972E0,1.8261017E1,5.675604E0,6.7606897E0,4.052307E0,8.402618E0,0E0,0E0,0E0,0E0,0E0,0E0,0E0,0E0,0E0,0E0,0E0,0E0,0E0,0E0,0E0,0E0],"parents":[2147483647,0,0,1,1,2,2,3,3,4,4,5,5,6,6,7,7,8,8,9,9,10,10,11,11,12,12,13,13,14,14],"right_children":[2,4,6,8,10,12,14,16,18,20,22,24,26,28,30,-1,-1,-1,-1,-1,-1,-1,-1,-1,-1,-1,-1,-1,-1,-1,-1],"split_conditions":[1.92E0,1.3513513E-1,1E0,4.642857E-1,3.1578946E-1,1.3513513E-1,1.8518518E-1,-5.3212E2,1E0,-1.9012E2,2.1621622E-1,9.4E0,8.076923E-1,5.714286E-1,2.0689656E-1,2.1496529E-2,7.298534E-3,2.6746169E-2,1.6387062E-2,3.2502227E-3,-2.414283E-3,8.648078E-3,3.0190116E-3,-3.1153385E-3,1.51836695E-2,-3.5767853E-3,7.1441964E-3,-1.0600852E-2,-1.5597278E-2,-3.3067258E-3,-8.047017E-3],"split_indices":[1,2,4,3,3,2,3,1,4,1,2,1,3,2,2,0,0,0,0,0,0,0,0,0,0,0,0,0,0,0,0],"split_type":[0,0,0,0,0,0,0,0,0,0,0,0,0,0,0,0,0,0,0,0,0,0,0,0,0,0,0,0,0,0,0],"sum_hessian":[2.4149113E4,1.3585243E4,1.0563869E4,2.9979126E3,1.0587331E4,3.2142751E3,7.3495938E3,1.9316666E3,1.066246E3,2.7659138E3,7.821417E3,2.0643423E2,3.0078408E3,1.8605352E3,5.4890586E3,1.8636493E2,1.7453018E3,2.3796706E2,8.282789E2,6.357577E2,2.1301562E3,1.9044628E3,5.916954E3,5.8861546E1,1.4757268E2,2.8537175E3,1.541233E2,1.2468431E3,6.13692E2,1.1977354E3,4.291323E3],"tree_param":{"num_deleted":"0","num_feature":"5","num_nodes":"31","size_leaf_vector":"1"}},{"base_weights":[3.5042714E-3,1.11771226E-1,-1.2093131E-1,2.6349565E-1,6.743882E-2,-3.529205E-2,-1.585591E-1,1.9178265E-1,3.683754E-1,1.3799782E-1,3.7194613E-2,2.0099396E-1,-5.699071E-2,-2.3235956E-1,-1.3237964E-1,1.1353865E-2,2.2695477E-3,2.723037E-2,1.5683599E-2,8.307013E-3,1.41638E-3,5.1324787E-3,-1.182821E-4,2.3206861E-3,1.947558E-2,-3.1855577E-3,4.3575694E-3,-9.825557E-3,-1.6036669E-2,-4.751812E-3,-8.547136E-3],"categories":[],"categories_nodes":[],"categories_segments":[],"categories_sizes":[],"default_left":[0,0,0,0,0,0,0,0,0,0,0,0,0,0,0,0,0,0,0,0,0,0,0,0,0,0,0,0,0,0,0],"id":17,"left_children":[1,3,5,7,9,11,13,15,17,19,21,23,25,27,29,-1,-1,-1,-1,-1,-1,-1,-1,-1,-1,-1,-1,-1,-1,-1,-1],"loss_changes":[3.2540457E2,8.685881E1,3.620703E1,2.1892944E1,2.1327908E1,1.760583E1,1.5052948E1,8.961521E0,1.125116E1,9.251274E0,1.8122929E1,8.399364E0,3.0509453E0,6.409134E0,8.2859955E0,0E0,0E0,0E0,0E0,0E0,0E0,0E0,0E0,0E0,0E0,0E0,0E0,0E0,0E0,0E0,0E0],"parents":[2147483647,0,0,1,1,2,2,3,3,4,4,5,5,6,6,7,7,8,8,9,9,10,10,11,11,12,12,13,13,14,14],"right_children":[2,4,6,8,10,12,14,16,18,20,22,24,26,28,30,-1,-1,-1,-1,-1,-1,-1,-1,-1,-1,-1,-1,-1,-1,-1,-1],"split_conditions":[3E-1,1.3513513E-1,1E0,4.1935483E-1,1E0,1.3513513E-1,1.8604651E-1,-6.35E0,1E0,6.1904764E-1,3.4210527E-1,3.6363637E-1,8.214286E-1,5.813953E-1,4.1379312E-1,1.1353865E-2,2.2695477E-3,2.723037E-2,1.5683599E-2,8.307013E-3,1.41638E-3,5.1324787E-3,-1.182821E-4,2.3206861E-3,1.947558E-2,-3.1855577E-3,4.3575694E-3,-9.825557E-3,-1.6036669E-2,-4.751812E-3,-8.547136E-3],"split_indices":[1,2,4,3,4,2,3,1,4,2,2,3,3,2,2,0,0,0,0,0,0,0,0,0,0,0,0,0,0,0,0],"split_type":[0,0,0,0,0,0,0,0,0,0,0,0,0,0,0,0,0,0,0,0,0,0,0,0,0,0,0,0,0,0,0],"sum_hessian":[2.4151666E4,1.291494E4,1.1236726E4,2.9192107E3,9.9957295E3,3.4306492E3,7.8060767E3,1.735421E3,1.1837898E3,2.9979712E3,6.9977583E3,2.8785117E2,3.1427979E3,2.0419371E3,5.7641396E3,1.3978516E3,3.3756943E2,2.782918E2,9.05498E2,2.3853523E3,6.126191E2,2.6355232E3,4.3622354E3,1.5884666E2,1.290045E2,3.0033296E3,1.3946844E2,1.4549619E3,5.869752E2,2.9301401E3,2.8339995E3],"tree_param":{"num_deleted":"0","num_feature":"5","num_nodes":"31","size_leaf_vector":"1"}},{"base_weights":[-3.2325243E-3,9.715306E-2,-1.2055383E-1,1.8120271E-1,3.3801556E-2,-3.577064E-2,-1.583088E-1,1.2651876E-1,2.612003E-1,-4.3531444E-2,5.5348277E-2,1.9774242E-1,-5.6575514E-2,-2.3980974E-1,-1.2993248E-1,1.1672224E-2,4.7586095E-3,1.9964475E-2,1.1022672E-2,1.2614719E-3,-3.6877883E-3,5.5230027E-3,1.3365555E-3,1.2459157E-3,1.640219E-2,-3.2978577E-3,5.1740366E-3,-1.025916E-2,-1.6151378E-2,-3.1739788E-3,-7.4828067E-3],"categories":[],"categories_nodes":[],"categories_segments":[],"categories_sizes":[],"default_left":[0,0,0,0,0,0,0,0,0,0,0,0,0,0,0,0,0,0,0,0,0,0,0,0,0,0,0,0,0,0,0],"id":18,"left_children":[1,3,5,7,9,11,13,15,17,19,21,23,25,27,29,-1,-1,-1,-1,-1,-1,-1,-1,-1,-1,-1,-1,-1,-1,-1,-1],"loss_changes":[2.8776117E2,7.010422E1,3.6057693E1,2.4722046E1,1.2514835E1,1.6881508E1,1.7995865E1,1.1250263E1,1.2834763E1,3.4037158E0,9.260153E0,6.3940115E0,4.7957544E0,5.7309875E0,7.57148E0,0E0,0E0,0E0,0E0,0E0,0E0,0E0,0E0,0E0,0E0,0E0,0E0,0E0,0E0,0E0,0E0],"parents":[2147483647,0,0,1,1,2,2,3,3,4,4,5,5,6,6,7,7,8,8,9,9,10,10,11,11,12,12,13,13,14,14],"right_children":[2,4,6,8,10,12,14,16,18,20,22,24,26,28,30,-1,-1,-1,-1,-1,-1,-1,-1,-1,-1,-1,-1,-1,-1,-1,-1],"split_conditions":[3E-1,2.1621622E-1,1E0,4.642857E-1,2.4324325E-1,1.3513513E-1,1.8518518E-1,1E0,1E0,-1.558E2,1E0,2.1621622E-1,8.076923E-1,5.813953E-1,2.0689656E-1,1.1672224E-2,4.7586095E-3,1.9964475E-2,1.1022672E-2,1.2614719E-3,-3.6877883E-3,5.5230027E-3,1.3365555E-3,1.2459157E-3,1.640219E-2,-3.2978577E-3,5.1740366E-3,-1.025916E-2,-1.6151378E-2,-3.1739788E-3,-7.4828067E-3],"split_indices":[1,2,4,3,3,2,3,4,4,1,4,3,3,2,2,0,0,0,0,0,0,0,0,0,0,0,0,0,0,0,0],"split_type":[0,0,0,0,0,0,0,0,0,0,0,0,0,0,0,0,0,0,0,0,0,0,0,0,0,0,0,0,0,0,0],"sum_hessian":[2.4431408E4,1.3166073E4,1.1265335E4,5.657844E3,7.5082295E3,3.471538E3,7.793797E3,3.3621567E3,2.2956873E3,1.6358839E3,5.872345E3,2.8329886E2,3.1882393E3,2.0108604E3,5.7829365E3,7.6074506E2,2.6014116E3,5.210557E2,1.7746316E3,4.9955426E2,1.1363297E3,2.0060931E3,3.8662522E3,1.2229078E2,1.6100809E2,3.0122644E3,1.7597482E2,1.4224508E3,5.8840955E2,1.3245344E3,4.458402E3],"tree_param":{"num_deleted":"0","num_feature":"5","num_nodes":"31","size_leaf_vector":"1"}},{"base_weights":[1.0331235E-3,2.1180536E-1,-7.406759E-2,4.8731852E-1,1.691049E-1,-2.2874529E-2,-2.1086708E-1,7E-1,4.2128903E-1,1.4834934E-1,3.74351E-1,5.6579478E-2,-6.198409E-2,-1.9223711E-1,-3.7800607E-1,-4.1739526E-3,3.5E-2,1.8633772E-2,3.5E-2,1.2599209E-2,6.235951E-3,2.8262703E-2,1.3308068E-2,5.794029E-3,3.464758E-4,-1.4884649E-3,-6.4186635E-3,-1.1536163E-2,-7.395636E-3,-1.7484112E-2,-2.2487784E-2],"categories":[],"categories_nodes":[],"categories_segments":[],"categories_sizes":[],"default_left":[0,0,0,0,0,0,0,0,0,0,0,0,0,0,0,0,0,0,0,0,0,0,0,0,0,0,0,0,0,0,0],"id":19,"left_children":[1,3,5,7,9,11,13,15,17,19,21,23,25,27,29,-1,-1,-1,-1,-1,-1,-1,-1,-1,-1,-1,-1,-1,-1,-1,-1],"loss_changes":[3.8400134E2,7.489334E1,1.2525487E2,1.50563965E1,2.3457E1,4.0451385E1,1.509314E1,2.9225388E0,1.0592865E1,1.2247841E1,1.0305153E1,1.2642584E1,1.8653015E1,7.4446106E0,8.332672E-1,0E0,0E0,0E0,0E0,0E0,0E0,0E0,0E0,0E0,0E0,0E0,0E0,0E0,0E0,0E0,0E0],"parents":[2147483647,0,0,1,1,2,2,3,3,4,4,5,5,6,6,7,7,8,8,9,9,10,10,11,11,12,12,13,13,14,14],"right_children":[2,4,6,8,10,12,14,16,18,20,22,24,26,28,30,-1,-1,-1,-1,-1,-1,-1,-1,-1,-1,-1,-1,-1,-1,-1,-1],"split_conditions":[-1.836E2,-5.186E2,1.879E2,-7.566E2,-5.25E0,1E0,5.112E2,-1.35885E3,-3.04E1,-3.929E2,1E0,-8.5E0,5.75E1,2.3045E2,6.945E2,-4.1739526E-3,3.5E-2,1.8633772E-2,3.5E-2,1.2599209E-2,6.235951E-3,2.8262703E-2,1.3308068E-2,5.794029E-3,3.464758E-4,-1.4884649E-3,-6.4186635E-3,-1.1536163E-2,-7.395636E-3,-1.7484112E-2,-2.2487784E-2],"split_indices":[0,0,0,0,1,4,0,1,1,0,4,0,0,1,0,0,0,0,0,0,0,0,0,0,0,0,0,0,0,0,0],"split_type":[0,0,0,0,0,0,0,0,0,0,0,0,0,0,0,0,0,0,0,0,0,0,0,0,0,0,0,0,0,0,0],"sum_hessian":[2.4257139E4,6.372032E3,1.7885105E4,8.5365326E2,5.518379E3,1.3015585E4,4.869521E3,1.5684903E2,6.9680426E2,5.013146E3,5.0523288E2,4.2931934E3,8.722392E3,4.383112E3,4.864089E2,4.5593095E0,1.5228972E2,6.083645E2,8.843976E1,9.29036E2,4.08411E3,1.8122774E2,3.2400516E2,1.955838E3,2.3373552E3,5.873684E3,2.8487075E3,2.3438123E3,2.0392997E3,3.5295163E2,1.3345728E2],"tree_param":{"num_deleted":"0","num_feature":"5","num_nodes":"31","size_leaf_vector":"1"}},{"base_weights":[1.6686158E-3,2.1133536E-1,-7.2369024E-2,5.075521E-1,1.6309577E-1,-1.0700968E-2,-1.8358155E-1,7E-1,4.3905836E-1,2.611292E-1,1.2727295E-1,5.4812077E-2,-4.2685475E-2,-1.4265664E-1,-2.6783034E-1,-1.6385153E-3,3.5E-2,3.3425856E-2,1.9029161E-2,9.418964E-3,2.2146257E-2,8.571517E-3,3.6681572E-3,5.5320724E-3,-1.5661442E-4,-7.201705E-6,-3.444946E-3,-3.7751228E-3,-8.900479E-3,-1.2248888E-2,-2.0702738E-2],"categories":[],"categories_nodes":[],"categories_segments":[],"categories_sizes":[],"default_left":[0,0,0,0,0,0,0,0,0,0,0,0,0,0,0,0,0,0,0,0,0,0,0,0,0,0,0,0,0,0,0],"id":20,"left_children":[1,3,5,7,9,11,13,15,17,19,21,23,25,27,29,-1,-1,-1,-1,-1,-1,-1,-1,-1,-1,-1,-1,-1,-1,-1,-1],"loss_changes":[3.7505594E2,9.001492E1,1.2245738E2,1.497821E1,1.901381E1,2.4073277E1,2.1922104E1,4.484108E0,9.234665E0,1.9100891E1,9.447914E0,1.2192929E1,8.608491E0,1.0169037E1,6.8533173E0,0E0,0E0,0E0,0E0,0E0,0E0,0E0,0E0,0E0,0E0,0E0,0E0,0E0,0E0,0E0,0E0],"parents":[2147483647,0,0,1,1,2,2,3,3,4,4,5,5,6,6,7,7,8,8,9,9,10,10,11,11,12,12,13,13,14,14],"right_children":[2,4,6,8,10,12,14,16,18,20,22,24,26,28,30,-1,-1,-1,-1,-1,-1,-1,-1,-1,-1,-1,-1,-1,-1,-1,-1],"split_conditions":[-1.836E2,-5.186E2,1.344E2,1E0,1E0,1E0,3.212E2,-1.35885E3,-7.566E2,-3.617E1,-2.81E2,-1.47E1,-6.32E1,1E0,5.756E2,-1.6385153E-3,3.5E-2,3.3425856E-2,1.9029161E-2,9.418964E-3,2.2146257E-2,8.571517E-3,3.6681572E-3,5.5320724E-3,-1.5661442E-4,-7.201705E-6,-3.444946E-3,-3.7751228E-3,-8.900479E-3,-1.2248888E-2,-2.0702738E-2],"split_indices":[0,0,0,4,4,4,0,1,0,1,0,0,0,4,0,0,0,0,0,0,0,0,0,0,0,0,0,0,0,0,0],"split_type":[0,0,0,0,0,0,0,0,0,0,0,0,0,0,0,0,0,0,0,0,0,0,0,0,0,0,0,0,0,0,0],"sum_hessian":[2.4158963E4,6.3042217E3,1.7854742E4,8.8154517E2,5.4226763E3,1.1486501E4,6.3682417E3,1.7533513E2,7.0621E2,1.4495417E3,3.9731345E3,3.7679634E3,7.718537E3,4.28799E3,2.0802515E3,8.263576E0,1.6707155E2,1.4130215E2,5.649079E2,1.0367129E3,4.1282892E2,2.1829258E3,1.7902086E3,1.9185409E3,1.8494225E3,2.943148E3,4.775389E3,1.4799355E3,2.8080544E3,1.8013965E3,2.78855E2],"tree_param":{"num_deleted":"0","num_feature":"5","num_nodes":"31","size_leaf_vector":"1"}},{"base_weights":[-2.1155204E-3,1.4098984E-1,-1.01782314E-1,4.553311E-1,1.0973191E-1,-3.813043E-2,-1.9065064E-1,3.8726598E-1,7E-1,1.991292E-1,6.789575E-2,2.3791227E-2,-6.979433E-2,-1.0093413E-1,-2.2796896E-1,2.50619E-2,1.1765884E-2,3.5E-2,2.3424722E-2,7.2964593E-3,1.6436832E-2,7.164275E-3,1.7873734E-3,5.148977E-3,-4.7046968E-4,-2.00469E-3,-5.6888377E-3,-2.188713E-3,-7.974656E-3,-1.042652E-2,-1.8430492E-2],"categories":[],"categories_nodes":[],"categories_segments":[],"categories_sizes":[],"default_left":[0,0,0,0,0,0,0,0,0,0,0,0,0,0,0,0,0,0,0,0,0,0,0,0,0,0,0,0,0,0,0],"id":21,"left_children":[1,3,5,7,9,11,13,15,17,19,21,23,25,27,29,-1,-1,-1,-1,-1,-1,-1,-1,-1,-1,-1,-1,-1,-1,-1,-1],"loss_changes":[3.4485028E2,9.747989E1,8.0612E1,1.681517E1,3.3757515E1,1.628609E1,1.9890198E1,1.2459145E1,2.7085724E0,1.979647E1,1.49065075E1,7.3909583E0,7.174425E0,5.847336E0,1.1404388E1,0E0,0E0,0E0,0E0,0E0,0E0,0E0,0E0,0E0,0E0,0E0,0E0,0E0,0E0,0E0,0E0],"parents":[2147483647,0,0,1,1,2,2,3,3,4,4,5,5,6,6,7,7,8,8,9,9,10,10,11,11,12,12,13,13,14,14],"right_children":[2,4,6,8,10,12,14,16,18,20,22,24,26,28,30,-1,-1,-1,-1,-1,-1,-1,-1,-1,-1,-1,-1,-1,-1,-1,-1],"split_conditions":[-8.01E1,-5.186E2,1.487E2,-5.695E1,-2.81E2,1E0,1E0,-6.063E2,1.7857143E-1,-1.021E2,1E0,-1.47E1,4.1379312E-1,2.339E2,4.893E2,2.50619E-2,1.1765884E-2,3.5E-2,2.3424722E-2,7.2964593E-3,1.6436832E-2,7.164275E-3,1.7873734E-3,5.148977E-3,-4.7046968E-4,-2.00469E-3,-5.6888377E-3,-2.188713E-3,-7.974656E-3,-1.042652E-2,-1.8430492E-2],"split_indices":[0,0,0,1,0,4,4,0,2,1,4,0,2,0,0,0,0,0,0,0,0,0,0,0,0,0,0,0,0,0,0],"split_type":[0,0,0,0,0,0,0,0,0,0,0,0,0,0,0,0,0,0,0,0,0,0,0,0,0,0,0,0,0,0,0],"sum_hessian":[2.4176203E4,9.92504E3,1.4251163E4,8.9644916E2,9.028591E3,8.304499E3,5.946664E3,7.252496E2,1.7119963E2,2.8770435E3,6.151548E3,2.8098425E3,5.4946567E3,1.7480067E3,4.198657E3,4.1309796E2,3.121516E2,1.1251899E2,5.868065E1,2.0412833E3,8.3576025E2,1.8379596E3,4.313588E3,8.294299E2,1.9804127E3,3.2809814E3,2.213675E3,8.8545496E2,8.625518E2,3.6909927E3,5.0766464E2],"tree_param":{"num_deleted":"0","num_feature":"5","num_nodes":"31","size_leaf_vector":"1"}},{"base_weights":[-2.0176491E-3,1.6723166E-1,-8.508131E-2,5.3017616E-1,1.4408495E-1,-2.0571753E-2,-1.8611082E-1,7E-1,4.3609113E-1,2.2200024E-1,1.0415784E-1,4.1601706E-2,-5.1201683E-2,-1.5379827E-1,-2.883594E-1,-4.782214E-3,3.5E-2,1.9675393E-2,3.5E-2,9.429754E-3,2.2744356E-2,8.9279665E-3,3.6748087E-3,5.199514E-3,7.82861E-4,-1.4923654E-3,-5.5150106E-3,-4.3350975E-3,-9.457024E-3,-1.30115645E-2,-2.1014618E-2],"categories":[],"categories_nodes":[],"categories_segments":[],"categories_sizes":[],"default_left":[0,0,0,0,0,0,0,0,0,0,0,0,0,0,0,0,0,0,0,0,0,0,0,0,0,0,0,0,0,0,0],"id":22,"left_children":[1,3,5,7,9,11,13,15,17,19,21,23,25,27,29,-1,-1,-1,-1,-1,-1,-1,-1,-1,-1,-1,-1,-1,-1,-1,-1],"loss_changes":[3.397107E2,6.67538E1,1.0563668E2,1.2514832E1,2.3245102E1,1.8843224E1,2.0824615E1,3.1361008E0,6.9761963E0,1.9622406E1,1.12728E1,5.28478E0,8.36216E0,1.1370293E1,5.5152283E0,0E0,0E0,0E0,0E0,0E0,0E0,0E0,0E0,0E0,0E0,0E0,0E0,0E0,0E0,0E0,0E0],"parents":[2147483647,0,0,1,1,2,2,3,3,4,4,5,5,6,6,7,7,8,8,9,9,10,10,11,11,12,12,13,13,14,14],"right_children":[2,4,6,8,10,12,14,16,18,20,22,24,26,28,30,-1,-1,-1,-1,-1,-1,-1,-1,-1,-1,-1,-1,-1,-1,-1,-1],"split_conditions":[-1.411E2,-6.063E2,1.344E2,1E0,-3.313E2,1E0,3.589E2,-1.35885E3,-5.48E1,-1.398E1,1E0,-4.838E1,5.75E1,1E0,5.756E2,-4.782214E-3,3.5E-2,1.9675393E-2,3.5E-2,9.429754E-3,2.2744356E-2,8.9279665E-3,3.6748087E-3,5.199514E-3,7.82861E-4,-1.4923654E-3,-5.5150106E-3,-4.3350975E-3,-9.457024E-3,-1.30115645E-2,-2.1014618E-2],"split_indices":[0,0,0,4,0,4,0,1,1,1,4,1,0,4,0,0,0,0,0,0,0,0,0,0,0,0,0,0,0,0,0],"split_type":[0,0,0,0,0,0,0,0,0,0,0,0,0,0,0,0,0,0,0,0,0,0,0,0,0,0,0,0,0,0,0],"sum_hessian":[2.4162117E4,7.9540493E3,1.6208069E4,4.755436E2,7.4785054E3,9.892619E3,6.31545E3,9.2491234E1,3.8305237E2,2.5323054E3,4.9462E3,3.2649587E3,6.62766E3,4.800805E3,1.514645E3,4.7279882E0,8.7763245E1,3.6322772E2,1.9824646E1,2.2162214E3,3.1608392E2,1.4420931E3,3.5041072E3,9.580742E2,2.3068845E3,4.8696055E3,1.7580546E3,1.6575123E3,3.1432927E3,1.250921E3,2.6372403E2],"tree_param":{"num_deleted":"0","num_feature":"5","num_nodes":"31","size_leaf_vector":"1"}},{"base_weights":[-3.9423423E-4,1.0734658E-1,-1.17656596E-1,4.2518327E-1,8.1987165E-2,-6.9284834E-2,-2.1841724E-1,6.329201E-1,3.7444916E-1,1.5228684E-1,3.072418E-2,-2.0201059E-2,-9.624531E-2,-1.9506928E-1,-3.5544875E-1,3.5E-2,2.1290457E-2,2.6714146E-2,1.7029656E-2,1.1872367E-2,5.96443E-3,5.2503003E-3,-1.5014541E-4,1.6887315E-3,-2.145284E-3,-2.893407E-3,-7.2046346E-3,-6.6570826E-3,-1.0924774E-2,-1.5575242E-2,-2.1398325E-2],"categories":[],"categories_nodes":[],"categories_segments":[],"categories_sizes":[],"default_left":[0,0,0,0,0,0,0,0,0,0,0,0,0,0,0,0,0,0,0,0,0,0,0,0,0,0,0,0,0,0,0],"id":23,"left_children":[1,3,5,7,9,11,13,15,17,19,21,23,25,27,29,-1,-1,-1,-1,-1,-1,-1,-1,-1,-1,-1,-1,-1,-1,-1,-1],"loss_changes":[3.0673615E2,1.0195087E2,5.664801E1,9.61438E0,4.2229187E1,1.0394451E1,1.1993576E1,6.9227524E0,3.8965454E0,1.3858856E1,1.6982698E1,3.4164324E0,9.302689E0,4.647644E0,1.6119614E0,0E0,0E0,0E0,0E0,0E0,0E0,0E0,0E0,0E0,0E0,0E0,0E0,0E0,0E0,0E0,0E0],"parents":[2147483647,0,0,1,1,2,2,3,3,4,4,5,5,6,6,7,7,8,8,9,9,10,10,11,11,12,12,13,13,14,14],"right_children":[2,4,6,8,10,12,14,16,18,20,22,24,26,28,30,-1,-1,-1,-1,-1,-1,-1,-1,-1,-1,-1,-1,-1,-1,-1,-1],"split_conditions":[-1.47E1,-5.186E2,2.241E2,1E0,-2.049E2,1E0,4.893E2,-6.723E2,-7.566E2,1.3513513E-1,1E0,3.478261E-1,4.1379312E-1,1E0,6.157E2,3.5E-2,2.1290457E-2,2.6714146E-2,1.7029656E-2,1.1872367E-2,5.96443E-3,5.2503003E-3,-1.5014541E-4,1.6887315E-3,-2.145284E-3,-2.893407E-3,-7.2046346E-3,-6.6570826E-3,-1.0924774E-2,-1.5575242E-2,-2.1398325E-2],"split_indices":[0,0,0,4,0,4,0,0,0,2,4,2,2,4,0,0,0,0,0,0,0,0,0,0,0,0,0,0,0,0,0],"split_type":[0,0,0,0,0,0,0,0,0,0,0,0,0,0,0,0,0,0,0,0,0,0,0,0,0,0,0,0,0,0,0],"sum_hessian":[2.4276738E4,1.2652077E4,1.1624661E4,9.337212E2,1.1718355E4,7.8552905E3,3.7693704E3,1.8102356E2,7.5269763E2,4.9408003E3,6.7775557E3,2.785609E3,5.0696816E3,3.222698E3,5.466724E2,7.252963E1,1.0849393E2,1.289842E2,6.2371344E2,1.3780894E3,3.562711E3,2.1157136E3,4.661842E3,8.2465924E2,1.9609496E3,2.8144736E3,2.2552078E3,8.863358E2,2.336362E3,3.4369653E2,2.0297589E2],"tree_param":{"num_deleted":"0","num_feature":"5","num_nodes":"31","size_leaf_vector":"1"}},{"base_weights":[-4.3777062E-4,8.2137235E-2,-1.1382056E-1,1.8073946E-1,4.4023316E-2,-3.755345E-2,-1.4937033E-1,1.2152007E-1,2.8926578E-1,-1.4732122E-2,7.1503654E-2,1.4718853E-1,-5.2123882E-2,-2.3716983E-1,-1.2857285E-1,1.0908825E-2,4.3218E-3,1.3677861E-2,2.9184941E-2,1.0021124E-3,-2.1958195E-3,6.814436E-3,2.1030935E-3,-6.7963335E-3,1.0361844E-2,-5.087751E-3,-1.744043E-3,-1.0413339E-2,-1.8045867E-2,-3.291398E-3,-7.349957E-3],"categories":[],"categories_nodes":[],"categories_segments":[],"categories_sizes":[],"default_left":[0,0,0,0,0,0,0,0,0,0,0,0,0,0,0,0,0,0,0,0,0,0,0,0,0,0,0,0,0,0,0],"id":24,"left_children":[1,3,5,7,9,11,13,15,17,19,21,23,25,27,29,-1,-1,-1,-1,-1,-1,-1,-1,-1,-1,-1,-1,-1,-1,-1,-1],"loss_changes":[2.2655042E2,5.2608818E1,2.7640182E1,2.504792E1,1.630707E1,8.737415E0,1.2668472E1,8.54961E0,6.2095795E0,3.2677531E0,1.3118919E1,4.063177E0,2.569624E0,4.6842117E0,6.493431E0,0E0,0E0,0E0,0E0,0E0,0E0,0E0,0E0,0E0,0E0,0E0,0E0,0E0,0E0,0E0,0E0],"parents":[2147483647,0,0,1,1,2,2,3,3,4,4,5,5,6,6,7,7,8,8,9,9,10,10,11,11,12,12,13,13,14,14],"right_children":[2,4,6,8,10,12,14,16,18,20,22,24,26,28,30,-1,-1,-1,-1,-1,-1,-1,-1,-1,-1,-1,-1,-1,-1,-1,-1],"split_conditions":[1.92E0,1.7857143E-1,1E0,5E-1,3.7931034E-1,1.3513513E-1,1.3513513E-1,1E0,-1.05E0,-5.187E1,1E0,1.3513513E-1,2.0930232E-1,6.111111E-1,2.0833333E-1,1.0908825E-2,4.3218E-3,1.3677861E-2,2.9184941E-2,1.0021124E-3,-2.1958195E-3,6.814436E-3,2.1030935E-3,-6.7963335E-3,1.0361844E-2,-5.087751E-3,-1.744043E-3,-1.0413339E-2,-1.8045867E-2,-3.291398E-3,-7.349957E-3],"split_indices":[1,2,4,3,3,2,3,4,1,1,4,3,3,2,2,0,0,0,0,0,0,0,0,0,0,0,0,0,0,0,0],"split_type":[0,0,0,0,0,0,0,0,0,0,0,0,0,0,0,0,0,0,0,0,0,0,0,0,0,0,0,0,0,0,0],"sum_hessian":[2.4195426E4,1.3999831E4,1.0195594E4,3.9018496E3,1.0097981E4,3.2421226E3,6.953471E3,2.525748E3,1.3761013E3,3.2180232E3,6.8799585E3,2.3634512E2,3.0057773E3,1.3296708E3,5.6238003E3,6.7124713E2,1.854501E3,1.3082338E3,6.786761E1,1.468524E3,1.7494993E3,2.1485535E3,4.7314053E3,4.1135647E1,1.9520949E2,7.737546E2,2.2320227E3,1.0800841E3,2.4958664E2,1.2776703E3,4.3461304E3],"tree_param":{"num_deleted":"0","num_feature":"5","num_nodes":"31","size_leaf_vector":"1"}},{"base_weights":[-3.065671E-4,1.281726E-1,-9.072524E-2,3.2154354E-1,8.766262E-2,-3.9803922E-2,-1.9558968E-1,4.875147E-1,2.5104567E-1,1.3690332E-1,4.8643015E-2,2.0998472E-2,-7.1709566E-2,-1.5824625E-1,-2.8213543E-1,3.5E-2,2.1250663E-2,1.011693E-2,2.447244E-2,1.1783961E-2,5.327299E-3,4.2848713E-3,7.3526223E-4,4.1158907E-3,1.2932891E-4,-2.2157163E-3,-6.816239E-3,-1.0478734E-2,-5.2502225E-3,-1.2767114E-2,-2.0059848E-2],"categories":[],"categories_nodes":[],"categories_segments":[],"categories_sizes":[],"default_left":[0,0,0,0,0,0,0,0,0,0,0,0,0,0,0,0,0,0,0,0,0,0,0,0,0,0,0,0,0,0,0],"id":25,"left_children":[1,3,5,7,9,11,13,15,17,19,21,23,25,27,29,-1,-1,-1,-1,-1,-1,-1,-1,-1,-1,-1,-1,-1,-1,-1,-1],"loss_changes":[2.8073022E2,7.816489E1,7.5730804E1,2.0102997E1,1.5852879E1,1.8525524E1,1.4938324E1,7.81411E0,1.4012947E1,1.0915718E1,5.791855E0,3.7108245E0,1.1079987E1,8.834557E0,4.3511963E0,0E0,0E0,0E0,0E0,0E0,0E0,0E0,0E0,0E0,0E0,0E0,0E0,0E0,0E0,0E0,0E0],"parents":[2147483647,0,0,1,1,2,2,3,3,4,4,5,5,6,6,7,7,8,8,9,9,10,10,11,11,12,12,13,13,14,14],"right_children":[2,4,6,8,10,12,14,16,18,20,22,24,26,28,30,-1,-1,-1,-1,-1,-1,-1,-1,-1,-1,-1,-1,-1,-1,-1,-1],"split_conditions":[-8.63E1,-4.162E2,1.879E2,-6.063E2,2.25E-1,1E0,3.679E2,1E0,-2.605E1,1E0,-2.021E2,2.1428572E-1,5.813953E-1,1.893E2,5.756E2,3.5E-2,2.1250663E-2,1.011693E-2,2.447244E-2,1.1783961E-2,5.327299E-3,4.2848713E-3,7.3526223E-4,4.1158907E-3,1.2932891E-4,-2.2157163E-3,-6.816239E-3,-1.0478734E-2,-5.2502225E-3,-1.2767114E-2,-2.0059848E-2],"split_indices":[0,0,0,0,2,4,0,4,1,4,0,2,2,1,0,0,0,0,0,0,0,0,0,0,0,0,0,0,0,0,0],"split_type":[0,0,0,0,0,0,0,0,0,0,0,0,0,0,0,0,0,0,0,0,0,0,0,0,0,0,0,0,0,0,0],"sum_hessian":[2.4163639E4,9.980941E3,1.4182698E4,1.7275745E3,8.253366E3,9.547762E3,4.6349365E3,5.1327356E2,1.2143009E3,3.647679E3,4.6056875E3,3.2859976E3,6.261764E3,3.2398218E3,1.3951145E3,9.739291E1,4.1588065E2,1.0098348E3,2.0446611E2,8.559261E2,2.791753E3,2.201017E3,2.4046704E3,7.5801575E2,2.5279817E3,4.3985674E3,1.863197E3,1.648056E3,1.5917657E3,1.1414022E3,2.5371231E2],"tree_param":{"num_deleted":"0","num_feature":"5","num_nodes":"31","size_leaf_vector":"1"}},{"base_weights":[1.326267E-3,7.768251E-2,-1.0690709E-1,1.4446422E-1,2.4216544E-2,-3.2013044E-2,-1.4157307E-1,1.0567153E-1,2.0469837E-1,-5.9215363E-2,4.777849E-2,1.6650096E-1,-4.8950147E-2,-2.1882394E-1,-1.12454325E-1,1.2453108E-2,4.491261E-3,1.231332E-2,6.9985734E-3,-2.0195886E-3,-7.139464E-3,5.269149E-3,8.459014E-4,2.510393E-3,2.0683428E-2,-2.8731094E-3,6.818056E-3,-9.484799E-3,-1.4430215E-2,-2.769878E-3,-6.436327E-3],"categories":[],"categories_nodes":[],"categories_segments":[],"categories_sizes":[],"default_left":[0,0,0,0,0,0,0,0,0,0,0,0,0,0,0,0,0,0,0,0,0,0,0,0,0,0,0,0,0,0,0],"id":26,"left_children":[1,3,5,7,9,11,13,15,17,19,21,23,25,27,29,-1,-1,-1,-1,-1,-1,-1,-1,-1,-1,-1,-1,-1,-1,-1,-1],"loss_changes":[2.0056747E2,5.0805786E1,2.6059586E1,1.4762253E1,1.5540956E1,1.069256E1,1.5411743E1,8.726814E0,6.631279E0,2.7332325E0,1.0956086E1,7.1662874E0,4.6275268E0,3.7613907E0,4.621868E0,0E0,0E0,0E0,0E0,0E0,0E0,0E0,0E0,0E0,0E0,0E0,0E0,0E0,0E0,0E0,0E0],"parents":[2147483647,0,0,1,1,2,2,3,3,4,4,5,5,6,6,7,7,8,8,9,9,10,10,11,11,12,12,13,13,14,14],"right_children":[2,4,6,8,10,12,14,16,18,20,22,24,26,28,30,-1,-1,-1,-1,-1,-1,-1,-1,-1,-1,-1,-1,-1,-1,-1,-1],"split_conditions":[1.92E0,2.195122E-1,1E0,4.642857E-1,2.4324325E-1,1.3513513E-1,1.923077E-1,-4.64E2,1.7857143E-1,-1.3E0,1E0,1.3253E2,8.214286E-1,5.813953E-1,2.0689656E-1,1.2453108E-2,4.491261E-3,1.231332E-2,6.9985734E-3,-2.0195886E-3,-7.139464E-3,5.269149E-3,8.459014E-4,2.510393E-3,2.0683428E-2,-2.8731094E-3,6.818056E-3,-9.484799E-3,-1.4430215E-2,-2.769878E-3,-6.436327E-3],"split_indices":[1,2,4,3,3,2,3,1,2,1,4,1,3,2,2,0,0,0,0,0,0,0,0,0,0,0,0,0,0,0,0],"split_type":[0,0,0,0,0,0,0,0,0,0,0,0,0,0,0,0,0,0,0,0,0,0,0,0,0,0,0,0,0,0,0],"sum_hessian":[2.4267158E4,1.4229114E4,1.0038044E4,6.325963E3,7.9031514E3,3.1767544E3,6.861289E3,3.849511E3,2.476452E3,1.7400812E3,6.16307E3,2.4903773E2,2.9277168E3,1.8764987E3,4.9847905E3,3.816159E2,3.467895E3,1.5062949E3,9.7015704E2,1.4214152E3,3.1866608E2,2.1491077E3,4.0139624E3,1.7017366E2,7.8864075E1,2.7998013E3,1.2791547E2,1.3265033E3,5.4999536E2,1.1071373E3,3.8776533E3],"tree_param":{"num_deleted":"0","num_feature":"5","num_nodes":"31","size_leaf_vector":"1"}},{"base_weights":[1.6689735E-3,1.49476E-1,-7.780193E-2,3.707508E-1,1.19757906E-1,-3.256035E-2,-1.8884797E-1,5.763708E-1,3.1906635E-1,2.0587294E-1,9.053955E-2,2.6038986E-2,-6.318436E-2,-1.638403E-1,-3.2025445E-1,2.5603648E-3,3.431776E-2,2.3789734E-2,1.4257485E-2,1.8538443E-2,7.7134743E-3,7.3354538E-3,3.0661537E-3,6.291923E-3,2.5062353E-4,-1.52075E-3,-5.653983E-3,-1.0513418E-2,-5.5064685E-3,-1.4106117E-2,-2.1492014E-2],"categories":[],"categories_nodes":[],"categories_segments":[],"categories_sizes":[],"default_left":[0,0,0,0,0,0,0,0,0,0,0,0,0,0,0,0,0,0,0,0,0,0,0,0,0,0,0,0,0,0,0],"id":27,"left_children":[1,3,5,7,9,11,13,15,17,19,21,23,25,27,29,-1,-1,-1,-1,-1,-1,-1,-1,-1,-1,-1,-1,-1,-1,-1,-1],"loss_changes":[2.8636325E2,5.6011047E1,7.9645226E1,1.0537308E1,1.8894142E1,2.0219368E1,1.5028702E1,1.1597855E1,4.1616898E0,1.6139664E1,9.20422E0,8.115257E0,1.2095194E1,9.596504E0,2.9404678E0,0E0,0E0,0E0,0E0,0E0,0E0,0E0,0E0,0E0,0E0,0E0,0E0,0E0,0E0,0E0,0E0],"parents":[2147483647,0,0,1,1,2,2,3,3,4,4,5,5,6,6,7,7,8,8,9,9,10,10,11,11,12,12,13,13,14,14],"right_children":[2,4,6,8,10,12,14,16,18,20,22,24,26,28,30,-1,-1,-1,-1,-1,-1,-1,-1,-1,-1,-1,-1,-1,-1,-1,-1],"split_conditions":[-1.308E2,-5.186E2,1.879E2,1E0,1.3513513E-1,1E0,4.501E2,-7.7455E2,-7.566E2,1E0,-2.922E2,1.9512194E-1,4.94E1,2.3045E2,6.157E2,2.5603648E-3,3.431776E-2,2.3789734E-2,1.4257485E-2,1.8538443E-2,7.7134743E-3,7.3354538E-3,3.0661537E-3,6.291923E-3,2.5062353E-4,-1.52075E-3,-5.653983E-3,-1.0513418E-2,-5.5064685E-3,-1.4106117E-2,-2.1492014E-2],"split_indices":[0,0,0,4,2,4,0,1,0,4,0,2,0,1,0,0,0,0,0,0,0,0,0,0,0,0,0,0,0,0,0],"split_type":[0,0,0,0,0,0,0,0,0,0,0,0,0,0,0,0,0,0,0,0,0,0,0,0,0,0,0,0,0,0,0],"sum_hessian":[2.4376908E4,8.523418E3,1.5853489E4,1.0078322E3,7.515586E3,1.1265197E4,4.5882925E3,2.0040302E2,8.074292E2,1.9024535E3,5.6131323E3,3.86659E3,7.398607E3,3.8565981E3,7.316941E2,3.4956284E1,1.6544673E2,1.4132768E2,6.661015E2,4.5198288E2,1.4504706E3,1.9192665E3,3.6938657E3,6.7200867E2,3.1945815E3,4.4666733E3,2.9319336E3,2.066976E3,1.7896222E3,5.454654E2,1.8622867E2],"tree_param":{"num_deleted":"0","num_feature":"5","num_nodes":"31","size_leaf_vector":"1"}},{"base_weights":[3.4230517E-3,1.2604253E-1,-8.431881E-2,3.3546868E-1,9.1845535E-2,-4.3402564E-2,-2.0452955E-1,2.844338E-1,5.8948684E-1,1.7264038E-1,6.829939E-2,1.2363706E-2,-7.389278E-2,-1.7769356E-1,-3.1305733E-1,2.1190967E-2,1.1332297E-2,3.3465113E-2,1.5564382E-2,1.7325073E-2,5.856883E-3,5.1604193E-3,1.5625891E-3,4.346785E-3,-6.355747E-4,-1.8224256E-3,-5.89949E-3,-1.0781435E-2,-7.2253644E-3,-1.3495514E-2,-1.9698609E-2],"categories":[],"categories_nodes":[],"categories_segments":[],"categories_sizes":[],"default_left":[0,0,0,0,0,0,0,0,0,0,0,0,0,0,0,0,0,0,0,0,0,0,0,0,0,0,0,0,0,0,0],"id":28,"left_children":[1,3,5,7,9,11,13,15,17,19,21,23,25,27,29,-1,-1,-1,-1,-1,-1,-1,-1,-1,-1,-1,-1,-1,-1,-1,-1],"loss_changes":[2.5959384E2,7.204466E1,6.916808E1,1.8140884E1,1.6449097E1,1.7844486E1,1.0345383E1,9.392036E0,5.017288E0,1.8795292E1,8.664061E0,6.9391813E0,1.1198681E1,3.5763397E0,2.3608627E0,0E0,0E0,0E0,0E0,0E0,0E0,0E0,0E0,0E0,0E0,0E0,0E0,0E0,0E0,0E0,0E0],"parents":[2147483647,0,0,1,1,2,2,3,3,4,4,5,5,6,6,7,7,8,8,9,9,10,10,11,11,12,12,13,13,14,14],"right_children":[2,4,6,8,10,12,14,16,18,20,22,24,26,28,30,-1,-1,-1,-1,-1,-1,-1,-1,-1,-1,-1,-1,-1,-1,-1,-1],"split_conditions":[-8.63E1,-4.555E2,2.241E2,-3.855E1,1.3513513E-1,1E0,4.501E2,-6.723E2,2.3529412E-1,1E0,-2.021E2,-1.47E1,6.47E1,1.893E2,5.756E2,2.1190967E-2,1.1332297E-2,3.3465113E-2,1.5564382E-2,1.7325073E-2,5.856883E-3,5.1604193E-3,1.5625891E-3,4.346785E-3,-6.355747E-4,-1.8224256E-3,-5.89949E-3,-1.0781435E-2,-7.2253644E-3,-1.3495514E-2,-1.9698609E-2],"split_indices":[0,0,0,1,2,4,0,0,2,4,0,0,0,1,0,0,0,0,0,0,0,0,0,0,0,0,0,0,0,0,0],"split_type":[0,0,0,0,0,0,0,0,0,0,0,0,0,0,0,0,0,0,0,0,0,0,0,0,0,0,0,0,0,0,0],"sum_hessian":[2.412639E4,1.0062952E4,1.4063438E4,1.411284E3,8.651668E3,1.0493214E4,3.570224E3,1.1769437E3,2.3434033E2,1.9509523E3,6.700716E3,3.7093845E3,6.783829E3,2.8645386E3,7.0568567E2,3.4308408E2,8.338597E2,1.8100433E2,5.3336002E1,4.708335E2,1.4801188E3,3.449014E3,3.2517017E3,9.32808E2,2.7765767E3,3.6696401E3,3.114189E3,1.3340695E3,1.530469E3,4.6308545E2,2.4260025E2],"tree_param":{"num_deleted":"0","num_feature":"5","num_nodes":"31","size_leaf_vector":"1"}},{"base_weights":[2.4255253E-3,9.486687E-2,-1.03440285E-1,3.232902E-1,7.1345605E-2,-5.5129547E-2,-2.0498434E-1,2.7745095E-1,5.526984E-1,1.4556438E-1,4.549835E-2,-6.5989285E-3,-8.2036145E-2,-1.875372E-1,-3.9356583E-1,2.2482896E-2,1.1793208E-2,3.5E-2,1.43638095E-2,6.876934E-3,3.5E-2,4.681111E-3,4.291751E-4,-6.0865603E-4,1.4378691E-2,-1.6180798E-3,-5.6004906E-3,-1.1746357E-2,-7.857106E-3,-6.412204E-3,-2.04277E-2],"categories":[],"categories_nodes":[],"categories_segments":[],"categories_sizes":[],"default_left":[0,0,0,0,0,0,0,0,0,0,0,0,0,0,0,0,0,0,0,0,0,0,0,0,0,0,0,0,0,0,0],"id":29,"left_children":[1,3,5,7,9,11,13,15,17,19,21,23,25,27,29,-1,-1,-1,-1,-1,-1,-1,-1,-1,-1,-1,-1,-1,-1,-1,-1],"loss_changes":[2.3732524E2,6.953377E1,5.5444687E1,1.2553543E1,2.2512428E1,1.0003744E1,1.1915756E1,7.120804E0,9.898373E0,1.50770645E1,1.5468935E1,4.486223E0,7.3348846E0,4.770256E0,1.1711388E0,0E0,0E0,0E0,0E0,0E0,0E0,0E0,0E0,0E0,0E0,0E0,0E0,0E0,0E0,0E0,0E0],"parents":[2147483647,0,0,1,1,2,2,3,3,4,4,5,5,6,6,7,7,8,8,9,9,10,10,11,11,12,12,13,13,14,14],"right_children":[2,4,6,8,10,12,14,16,18,20,22,24,26,28,30,-1,-1,-1,-1,-1,-1,-1,-1,-1,-1,-1,-1,-1,-1,-1,-1],"split_conditions":[-1.47E1,-4.915E2,2.221E2,-3.855E1,1.7857143E-1,1E0,5.518E2,-7.566E2,1.7857143E-1,8.41E1,-1.836E2,2.209E2,6.47E1,1.4567E2,1.6666667E-1,2.2482896E-2,1.1793208E-2,3.5E-2,1.43638095E-2,6.876934E-3,3.5E-2,4.681111E-3,4.291751E-4,-6.0865603E-4,1.4378691E-2,-1.6180798E-3,-5.6004906E-3,-1.1746357E-2,-7.857106E-3,-6.412204E-3,-2.04277E-2],"split_indices":[0,0,0,1,2,4,0,0,2,1,0,0,0,1,2,0,0,0,0,0,0,0,0,0,0,0,0,0,0,0,0],"split_type":[0,0,0,0,0,0,0,0,0,0,0,0,0,0,0,0,0,0,0,0,0,0,0,0,0,0,0,0,0,0,0],"sum_hessian":[2.4248566E4,1.2945096E4,1.1303471E4,1.2073501E3,1.1737746E4,7.660462E3,3.643009E3,1.00812146E3,1.9922859E2,3.0306865E3,8.70706E3,2.7327424E3,4.9277197E3,3.3363333E3,3.0667566E2,1.9418935E2,8.139321E2,1.1373807E2,8.549052E1,2.9939927E3,3.6694035E1,3.7790205E3,4.9280386E3,2.6828643E3,4.9878174E1,1.8552097E3,3.0725098E3,1.3010675E3,2.0352659E3,1.6908897E1,2.8976675E2],"tree_param":{"num_deleted":"0","num_feature":"5","num_nodes":"31","size_leaf_vector":"1"}},{"base_weights":[-4.3154205E-3,1.2629083E-1,-7.834622E-2,2.6374984E-1,8.993843E-2,-2.6449695E-2,-1.721076E-1,4.1747287E-1,2.2401331E-1,1.6646668E-1,5.963961E-2,2.0089284E-2,-5.0473448E-2,-1.5564571E-1,-3.5944566E-1,3.456017E-2,1.6624723E-2,9.276017E-3,1.7550228E-2,7.1808486E-3,1.9702502E-2,5.433916E-3,1.5126283E-3,3.2278807E-3,-6.550061E-4,-3.568907E-3,-7.8396866E-4,-4.294984E-3,-9.377091E-3,-1.5781833E-2,-2.0952499E-2],"categories":[],"categories_nodes":[],"categories_segments":[],"categories_sizes":[],"default_left":[0,0,0,0,0,0,0,0,0,0,0,0,0,0,0,0,0,0,0,0,0,0,0,0,0,0,0,0,0,0,0],"id":30,"left_children":[1,3,5,7,9,11,13,15,17,19,21,23,25,27,29,-1,-1,-1,-1,-1,-1,-1,-1,-1,-1,-1,-1,-1,-1,-1,-1],"loss_changes":[2.3492528E2,4.389891E1,7.545155E1,1.1132973E1,1.6112087E1,1.1162731E1,1.6982407E1,8.524292E0,7.0841217E0,1.0195549E1,7.177021E0,5.018266E0,4.7882977E0,1.1285812E1,1.031044E0,0E0,0E0,0E0,0E0,0E0,0E0,0E0,0E0,0E0,0E0,0E0,0E0,0E0,0E0,0E0,0E0],"parents":[2147483647,0,0,1,1,2,2,3,3,4,4,5,5,6,6,7,7,8,8,9,9,10,10,11,11,12,12,13,13,14,14],"right_children":[2,4,6,8,10,12,14,16,18,20,22,24,26,28,30,-1,-1,-1,-1,-1,-1,-1,-1,-1,-1,-1,-1,-1,-1,-1,-1],"split_conditions":[-1.275E2,-4.162E2,1.508E2,-6.723E2,1E0,1E0,5.112E2,1E0,-5.695E1,-1.05E0,-2.772E2,-8.5E0,4.390244E-1,1E0,6.157E2,3.456017E-2,1.6624723E-2,9.276017E-3,1.7550228E-2,7.1808486E-3,1.9702502E-2,5.433916E-3,1.5126283E-3,3.2278807E-3,-6.550061E-4,-3.568907E-3,-7.8396866E-4,-4.294984E-3,-9.377091E-3,-1.5781833E-2,-2.0952499E-2],"split_indices":[0,0,0,0,4,4,0,4,1,1,0,0,3,4,0,0,0,0,0,0,0,0,0,0,0,0,0,0,0,0,0],"split_type":[0,0,0,0,0,0,0,0,0,0,0,0,0,0,0,0,0,0,0,0,0,0,0,0,0,0,0,0,0,0,0],"sum_hessian":[2.4295016E4,8.788864E3,1.5506151E4,1.8368693E3,6.951995E3,9.982282E3,5.5238687E3,3.7533994E2,1.4615293E3,1.9704843E3,4.9815107E3,3.3986187E3,6.583664E3,5.0793623E3,4.4450638E2,8.722831E1,2.8811163E2,1.1234542E3,3.3807504E2,1.7921779E3,1.7830637E2,1.865619E3,3.1158916E3,1.4520996E3,1.946519E3,4.112046E3,2.471618E3,1.595103E3,3.484259E3,2.5982864E2,1.8467773E2],"tree_param":{"num_deleted":"0","num_feature":"5","num_nodes":"31","size_leaf_vector":"1"}},{"base_weights":[1.0985174E-3,9.463346E-2,-9.398886E-2,1.9509262E-1,4.1176498E-2,-5.6973062E-2,-1.9984037E-1,4.339864E-1,1.7107618E-1,1.1158708E-1,9.351106E-3,-9.454999E-3,-8.322438E-2,-1.7811933E-1,-3.4012523E-1,3.5E-2,1.7340222E-2,7.555415E-3,1.7810112E-2,7.2965473E-3,3.4153685E-3,4.612097E-3,-1.11781424E-4,-1.5298624E-3,1.7617306E-3,-2.0151811E-3,-5.749928E-3,-1.0366418E-2,-6.956329E-3,-8.278693E-3,-1.8265445E-2],"categories":[],"categories_nodes":[],"categories_segments":[],"categories_sizes":[],"default_left":[0,0,0,0,0,0,0,0,0,0,0,0,0,0,0,0,0,0,0,0,0,0,0,0,0,0,0,0,0,0,0],"id":31,"left_children":[1,3,5,7,9,11,13,15,17,19,21,23,25,27,29,-1,-1,-1,-1,-1,-1,-1,-1,-1,-1,-1,-1,-1,-1,-1,-1],"loss_changes":[2.157412E2,6.566082E1,4.7119057E1,2.4291092E1,1.7886555E1,1.1118055E1,9.434677E0,1.0487007E1,1.4216743E1,3.683445E0,5.2813525E0,2.9991143E0,7.8254166E0,3.0468063E0,1.7712517E0,0E0,0E0,0E0,0E0,0E0,0E0,0E0,0E0,0E0,0E0,0E0,0E0,0E0,0E0,0E0,0E0],"parents":[2147483647,0,0,1,1,2,2,3,3,4,4,5,5,6,6,7,7,8,8,9,9,10,10,11,11,12,12,13,13,14,14],"right_children":[2,4,6,8,10,12,14,16,18,20,22,24,26,28,30,-1,-1,-1,-1,-1,-1,-1,-1,-1,-1,-1,-1,-1,-1,-1,-1],"split_conditions":[-3.93E1,-2.81E2,2.403E2,-6.723E2,1E0,1E0,5.112E2,1E0,-7.48E0,5.16129E-1,-4.64E2,5.813953E-1,6.47E1,3.6363637E-1,1E0,3.5E-2,1.7340222E-2,7.555415E-3,1.7810112E-2,7.2965473E-3,3.4153685E-3,4.612097E-3,-1.11781424E-4,-1.5298624E-3,1.7617306E-3,-2.0151811E-3,-5.749928E-3,-1.0366418E-2,-6.956329E-3,-8.278693E-3,-1.8265445E-2],"split_indices":[0,0,0,0,4,4,0,4,1,3,1,3,0,3,4,0,0,0,0,0,0,0,0,0,0,0,0,0,0,0,0],"split_type":[0,0,0,0,0,0,0,0,0,0,0,0,0,0,0,0,0,0,0,0,0,0,0,0,0,0,0,0,0,0,0],"sum_hessian":[2.4254955E4,1.2227294E4,1.2027662E4,4.2457695E3,7.9815244E3,8.912529E3,3.1151326E3,3.8628516E2,3.8594841E3,2.4838162E3,5.497708E3,3.172066E3,5.7404634E3,2.6994348E3,4.1569788E2,7.960226E1,3.066829E2,3.4853655E3,3.7411874E2,1.383551E3,1.1002651E3,6.7338556E2,4.8243223E3,2.1535542E3,1.0185116E3,2.4428777E3,3.2975857E3,1.5408699E3,1.1585648E3,5.336847E1,3.623294E2],"tree_param":{"num_deleted":"0","num_feature":"5","num_nodes":"31","size_leaf_vector":"1"}},{"base_weights":[1.1796965E-4,6.905396E-2,-1.00211546E-1,1.7005043E-1,3.7461795E-2,-1.4711681E-1,-6.389234E-2,1.1655598E-1,2.4521247E-1,6.1805528E-3,6.836489E-2,-2.3826282E-2,-1.6296135E-1,5.92277E-2,-7.300435E-2,7.4692494E-3,-2.3497303E-4,1.8633531E-2,1.01528475E-2,-3.7558505E-3,9.344681E-4,6.1045717E-3,2.1650714E-3,3.9183497E-3,-3.4774255E-3,-4.6162433E-3,-9.491879E-3,1.1536425E-2,-1.30474E-3,-2.1190846E-3,-4.5508957E-3],"categories":[],"categories_nodes":[],"categories_segments":[],"categories_sizes":[],"default_left":[0,0,0,0,0,0,0,0,0,0,0,0,0,0,0,0,0,0,0,0,0,0,0,0,0,0,0,0,0,0,0],"id":32,"left_children":[1,3,5,7,9,11,13,15,17,19,21,23,25,27,29,-1,-1,-1,-1,-1,-1,-1,-1,-1,-1,-1,-1,-1,-1,-1,-1],"loss_changes":[1.669595E2,4.564798E1,1.6738945E1,1.3678383E1,1.0536978E1,8.375877E0,6.222542E0,7.936224E0,7.535553E0,5.511385E0,7.378393E0,2.293442E0,7.19841E0,5.6030455E0,2.843193E0,0E0,0E0,0E0,0E0,0E0,0E0,0E0,0E0,0E0,0E0,0E0,0E0,0E0,0E0,0E0,0E0],"parents":[2147483647,0,0,1,1,2,2,3,3,4,4,5,5,6,6,7,7,8,8,9,9,10,10,11,11,12,12,13,13,14,14],"right_children":[2,4,6,8,10,12,14,16,18,20,22,24,26,28,30,-1,-1,-1,-1,-1,-1,-1,-1,-1,-1,-1,-1,-1,-1,-1,-1],"split_conditions":[1.665E0,1.3513513E-1,3.448276E-1,4.1935483E-1,4.2857143E-1,1.5384616E-1,1.4705883E-1,-6.35E0,1E0,1.3513513E-1,3.3333334E-1,1.288E1,1E0,1E0,1E0,7.4692494E-3,-2.3497303E-4,1.8633531E-2,1.01528475E-2,-3.7558505E-3,9.344681E-4,6.1045717E-3,2.1650714E-3,3.9183497E-3,-3.4774255E-3,-4.6162433E-3,-9.491879E-3,1.1536425E-2,-1.30474E-3,-2.1190846E-3,-4.5508957E-3],"split_indices":[1,2,3,3,3,2,2,1,4,3,2,1,4,4,4,0,0,0,0,0,0,0,0,0,0,0,0,0,0,0,0],"split_type":[0,0,0,0,0,0,0,0,0,0,0,0,0,0,0,0,0,0,0,0,0,0,0,0,0,0,0,0,0,0,0],"sum_hessian":[2.4137953E4,1.4307583E4,9.830369E3,3.4080532E3,1.089953E4,4.2886475E3,5.5417217E3,1.9924991E3,1.415554E3,5.417221E3,5.482309E3,4.8867142E2,3.7999758E3,3.8149658E2,5.160225E3,1.5677975E3,4.247016E2,3.4987088E2,1.0656831E3,7.217034E2,4.6955176E3,1.7427161E3,3.739593E3,1.5083275E2,3.3783868E2,1.0485625E3,2.7514133E3,1.2617562E2,2.5532097E2,1.9124514E3,3.2477734E3],"tree_param":{"num_deleted":"0","num_feature":"5","num_nodes":"31","size_leaf_vector":"1"}},{"base_weights":[1.0972852E-3,9.861059E-2,-8.825282E-2,2.55826E-1,6.811022E-2,-4.1804876E-2,-1.7570502E-1,4.363128E-1,2.0525749E-1,1.11281864E-1,3.7572637E-2,-1.743769E-2,-7.1582556E-2,-1.3012625E-1,-2.4098462E-1,2.0018883E-2,3.5E-2,6.7222132E-3,1.4686744E-2,4.8536155E-3,1.2958827E-2,1.1024477E-3,6.0939444E-3,1.1553107E-3,-2.038485E-3,-6.7563453E-3,-2.7872776E-3,-9.433319E-3,-3.717208E-3,-1.0995883E-2,-1.9603869E-2],"categories":[],"categories_nodes":[],"categories_segments":[],"categories_sizes":[],"default_left":[0,0,0,0,0,0,0,0,0,0,0,0,0,0,0,0,0,0,0,0,0,0,0,0,0,0,0,0,0,0,0],"id":33,"left_children":[1,3,5,7,9,11,13,15,17,19,21,23,25,27,29,-1,-1,-1,-1,-1,-1,-1,-1,-1,-1,-1,-1,-1,-1,-1,-1],"loss_changes":[2.109742E2,5.5501488E1,5.131984E1,1.7077148E1,1.2781662E1,5.9879017E0,1.3009445E1,4.4179993E0,9.177639E0,8.417656E0,7.4333735E0,4.2963724E0,3.730383E0,8.421028E0,5.645981E0,0E0,0E0,0E0,0E0,0E0,0E0,0E0,0E0,0E0,0E0,0E0,0E0,0E0,0E0,0E0,0E0],"parents":[2147483647,0,0,1,1,2,2,3,3,4,4,5,5,6,6,7,7,8,8,9,9,10,10,11,11,12,12,13,13,14,14],"right_children":[2,4,6,8,10,12,14,16,18,20,22,24,26,28,30,-1,-1,-1,-1,-1,-1,-1,-1,-1,-1,-1,-1,-1,-1,-1,-1],"split_conditions":[-5.47E1,-4.162E2,1.847E2,-6.723E2,2.1621622E-1,6.71E1,3.212E2,-5.48E1,-2.3337E2,-5.05E-1,7.9545456E-1,3.3333334E-1,1.923077E-1,1.781E2,5.756E2,2.0018883E-2,3.5E-2,6.7222132E-3,1.4686744E-2,4.8536155E-3,1.2958827E-2,1.1024477E-3,6.0939444E-3,1.1553107E-3,-2.038485E-3,-6.7563453E-3,-2.7872776E-3,-9.433319E-3,-3.717208E-3,-1.0995883E-2,-1.9603869E-2],"split_indices":[0,0,0,0,2,0,0,1,1,1,3,2,3,1,0,0,0,0,0,0,0,0,0,0,0,0,0,0,0,0,0],"split_type":[0,0,0,0,0,0,0,0,0,0,0,0,0,0,0,0,0,0,0,0,0,0,0,0,0,0,0,0,0,0,0],"sum_hessian":[2.4212217E4,1.1577199E4,1.2635018E4,1.8798817E3,9.697317E3,8.253086E3,4.381932E3,4.0975934E2,1.4701223E3,4.016484E3,5.6808335E3,4.5397646E3,3.7133208E3,2.5820896E3,1.7998425E3,3.718098E2,3.794951E1,8.1797363E2,6.521487E2,3.6659226E3,3.5056125E2,4.798522E3,8.823116E2,1.658247E3,2.8815178E3,7.393247E2,2.973996E3,1.2587361E3,1.3233536E3,1.581753E3,2.1808948E2],"tree_param":{"num_deleted":"0","num_feature":"5","num_nodes":"31","size_leaf_vector":"1"}},{"base_weights":[1.4613579E-3,8.176495E-2,-9.648103E-2,2.0781088E-1,4.94473E-2,-5.869408E-2,-1.9648509E-1,3.3215013E-1,1.724634E-1,1.3757744E-1,2.8631184E-2,-1.5247391E-2,-8.306313E-2,-1.8017307E-1,-3.9221513E-1,3.2043707E-2,1.5846696E-2,1.3183536E-2,7.4430914E-3,1.2898122E-2,4.711825E-3,3.9419625E-3,3.544823E-4,-1.6148471E-3,2.7753327E-3,-2.1352768E-3,-6.049871E-3,-1.1131346E-2,-7.2492133E-3,-4.97592E-3,-2.012207E-2],"categories":[],"categories_nodes":[],"categories_segments":[],"categories_sizes":[],"default_left":[0,0,0,0,0,0,0,0,0,0,0,0,0,0,0,0,0,0,0,0,0,0,0,0,0,0,0,0,0,0,0],"id":34,"left_children":[1,3,5,7,9,11,13,15,17,19,21,23,25,27,29,-1,-1,-1,-1,-1,-1,-1,-1,-1,-1,-1,-1,-1,-1,-1,-1],"loss_changes":[1.9020128E2,5.4118362E1,4.1158676E1,1.1859528E1,1.9400898E1,8.371977E0,9.46711E0,2.6112213E0,4.509907E0,1.051926E1,9.255205E0,3.4315062E0,7.7512665E0,4.0899353E0,6.452713E-1,0E0,0E0,0E0,0E0,0E0,0E0,0E0,0E0,0E0,0E0,0E0,0E0,0E0,0E0,0E0,0E0],"parents":[2147483647,0,0,1,1,2,2,3,3,4,4,5,5,6,6,7,7,8,8,9,9,10,10,11,11,12,12,13,13,14,14],"right_children":[2,4,6,8,10,12,14,16,18,20,22,24,26,28,30,-1,-1,-1,-1,-1,-1,-1,-1,-1,-1,-1,-1,-1,-1,-1,-1],"split_conditions":[-1.47E1,-3.65E2,2.403E2,-6.063E2,1.3513513E-1,1E0,5.756E2,1.875E-1,1E0,1E0,-2.115E2,6.1764705E-1,9.12E1,2.0689656E-1,1.6666667E-1,3.2043707E-2,1.5846696E-2,1.3183536E-2,7.4430914E-3,1.2898122E-2,4.711825E-3,3.9419625E-3,3.544823E-4,-1.6148471E-3,2.7753327E-3,-2.1352768E-3,-6.049871E-3,-1.1131346E-2,-7.2492133E-3,-4.97592E-3,-2.012207E-2],"split_indices":[0,0,0,0,2,4,0,3,4,4,0,3,0,3,2,0,0,0,0,0,0,0,0,0,0,0,0,0,0,0,0],"split_type":[0,0,0,0,0,0,0,0,0,0,0,0,0,0,0,0,0,0,0,0,0,0,0,0,0,0,0,0,0,0,0],"sum_hessian":[2.4180863E4,1.3286963E4,1.0893901E4,2.7103955E3,1.0576567E4,7.907577E3,2.986324E3,5.9810144E2,2.112294E3,2.0197693E3,8.556798E3,2.8421099E3,5.0654673E3,2.7583643E3,2.2795992E2,2.6162802E1,5.7193866E2,4.3213907E2,1.6801549E3,5.333553E2,1.486414E3,2.5682275E3,5.9885703E3,2.2906719E3,5.51438E2,2.4553699E3,2.6100974E3,1.2477174E3,1.5106467E3,8.057883E0,2.1990202E2],"tree_param":{"num_deleted":"0","num_feature":"5","num_nodes":"31","size_leaf_vector":"1"}},{"base_weights":[-6.6219026E-4,6.460094E-2,-1.170851E-1,1.8594302E-1,3.335025E-2,-7.2230436E-2,-2.0092437E-1,2.7355096E-1,1.4907342E-1,8.439292E-2,1.0798647E-2,-1.916796E-2,-1.03604615E-1,-1.7791328E-1,-3.2899606E-1,2.0643784E-2,1.192047E-2,1.239788E-2,6.115719E-3,7.6937075E-3,2.856337E-3,2.823629E-3,-5.9630955E-4,-1.4135636E-3,8.642742E-3,-3.517354E-3,-6.998108E-3,-6.2037683E-3,-9.877343E-3,-1.8574847E-2,-1.3203518E-2],"categories":[],"categories_nodes":[],"categories_segments":[],"categories_sizes":[],"default_left":[0,0,0,0,0,0,0,0,0,0,0,0,0,0,0,0,0,0,0,0,0,0,0,0,0,0,0,0,0,0,0],"id":35,"left_children":[1,3,5,7,9,11,13,15,17,19,21,23,25,27,29,-1,-1,-1,-1,-1,-1,-1,-1,-1,-1,-1,-1,-1,-1,-1,-1],"loss_changes":[1.8499838E2,5.915673E1,3.2875404E1,1.0279388E1,1.4281765E1,9.486048E0,8.923363E0,4.529114E0,5.9255943E0,7.194111E0,8.934044E0,3.7088048E0,4.320572E0,2.7086792E0,1.1795387E0,0E0,0E0,0E0,0E0,0E0,0E0,0E0,0E0,0E0,0E0,0E0,0E0,0E0,0E0,0E0,0E0],"parents":[2147483647,0,0,1,1,2,2,3,3,4,4,5,5,6,6,7,7,8,8,9,9,10,10,11,11,12,12,13,13,14,14],"right_children":[2,4,6,8,10,12,14,16,18,20,22,24,26,28,30,-1,-1,-1,-1,-1,-1,-1,-1,-1,-1,-1,-1,-1,-1,-1,-1],"split_conditions":[4.94E1,-3.384E2,2.403E2,-5.397E2,-1.836E2,1E0,4.893E2,1E0,1E0,1E0,1E0,8.181818E-1,1.358E2,1E0,1.9512194E-1,2.0643784E-2,1.192047E-2,1.239788E-2,6.115719E-3,7.6937075E-3,2.856337E-3,2.823629E-3,-5.9630955E-4,-1.4135636E-3,8.642742E-3,-3.517354E-3,-6.998108E-3,-6.2037683E-3,-9.877343E-3,-1.8574847E-2,-1.3203518E-2],"split_indices":[0,0,0,0,0,4,0,4,4,4,4,3,0,4,3,0,0,0,0,0,0,0,0,0,0,0,0,0,0,0,0],"split_type":[0,0,0,0,0,0,0,0,0,0,0,0,0,0,0,0,0,0,0,0,0,0,0,0,0,0,0,0,0,0,0],"sum_hessian":[2.4345912E4,1.5600944E4,8.744968E3,3.1940273E3,1.2406917E4,5.6982314E3,3.0467363E3,9.44153E2,2.2498743E3,3.80103E3,8.605888E3,2.1178936E3,3.580338E3,2.5847197E3,4.620165E2,1.8800931E2,7.561437E2,4.7740976E2,1.7724645E3,1.06993E3,2.7310999E3,2.8587307E3,5.7471567E3,2.0228484E3,9.50453E1,1.8714191E3,1.7089187E3,6.926636E2,1.8920562E3,2.7637653E2,1.8563998E2],"tree_param":{"num_deleted":"0","num_feature":"5","num_nodes":"31","size_leaf_vector":"1"}},{"base_weights":[8.2246907E-4,6.380035E-2,-1.1183807E-1,1.6671772E-1,2.4902029E-2,-8.6512096E-2,-2.5361884E-1,1.9832987E-1,9.047671E-2,7.559302E-2,1.1313425E-3,-3.6236636E-2,-1.14138335E-1,-2.2576874E-1,-3.9632174E-1,1.324667E-2,7.835599E-3,3.8684139E-3,2.2019159E-2,8.116209E-3,1.8358482E-3,3.756548E-3,-5.050636E-4,1.2137956E-2,-2.0960686E-3,-3.3859105E-3,-7.2522736E-3,2.4388418E-2,-1.141322E-2,-3.3344836E-3,-2.054459E-2],"categories":[],"categories_nodes":[],"categories_segments":[],"categories_sizes":[],"default_left":[0,0,0,0,0,0,0,0,0,0,0,0,0,0,0,0,0,0,0,0,0,0,0,0,0,0,0,0,0,0,0],"id":36,"left_children":[1,3,5,7,9,11,13,15,17,19,21,23,25,27,29,-1,-1,-1,-1,-1,-1,-1,-1,-1,-1,-1,-1,-1,-1,-1,-1],"loss_changes":[1.7175514E2,6.215736E1,3.1145538E1,1.0246437E1,1.3579428E1,1.0226654E1,5.13665E0,8.301117E0,5.699875E0,1.2124466E1,6.378655E0,4.1554914E0,6.809845E0,2.0747452E0,9.9752045E-1,0E0,0E0,0E0,0E0,0E0,0E0,0E0,0E0,0E0,0E0,0E0,0E0,0E0,0E0,0E0,0E0],"parents":[2147483647,0,0,1,1,2,2,3,3,4,4,5,5,6,6,7,7,8,8,9,9,10,10,11,11,12,12,13,13,14,14],"right_children":[2,4,6,8,10,12,14,16,18,20,22,24,26,28,30,-1,-1,-1,-1,-1,-1,-1,-1,-1,-1,-1,-1,-1,-1,-1,-1],"split_conditions":[4.94E1,-2.81E2,3.589E2,3.6363637E-1,1E0,1E0,5.756E2,-4.766E2,-2.63E0,2.1428572E-1,-3.4882E2,-2.067E2,1.358E2,-4.31E1,1.6666667E-1,1.324667E-2,7.835599E-3,3.8684139E-3,2.2019159E-2,8.116209E-3,1.8358482E-3,3.756548E-3,-5.050636E-4,1.2137956E-2,-2.0960686E-3,-3.3859105E-3,-7.2522736E-3,2.4388418E-2,-1.141322E-2,-3.3344836E-3,-2.054459E-2],"split_indices":[0,0,0,2,4,4,0,0,1,2,1,1,0,1,2,0,0,0,0,0,0,0,0,0,0,0,0,0,0,0,0],"split_type":[0,0,0,0,0,0,0,0,0,0,0,0,0,0,0,0,0,0,0,0,0,0,0,0,0,0,0,0,0,0,0],"sum_hessian":[2.420549E4,1.5526515E4,8.678976E3,4.2578325E3,1.1268683E4,7.3649937E3,1.3139822E3,3.008715E3,1.2491177E3,3.5966487E3,7.6720337E3,2.6126636E3,4.7523296E3,1.1015787E3,2.1240343E2,1.154975E3,1.85374E3,1.2051892E3,4.3928497E1,1.1121978E3,2.484451E3,1.0103349E3,6.6616987E3,5.133905E1,2.5613245E3,1.9007467E3,2.851583E3,3.1617007E0,1.0984171E3,9.227099E0,2.0317633E2],"tree_param":{"num_deleted":"0","num_feature":"5","num_nodes":"31","size_leaf_vector":"1"}},{"base_weights":[4.3669365E-6,7.6314636E-2,-9.239566E-2,2.1367978E-1,5.083694E-2,-5.5773854E-2,-1.8983442E-1,1.7855869E-1,3.5775405E-1,1.14146486E-1,2.3088917E-2,-1.1368756E-2,-8.0851674E-2,-1.6621116E-1,-3.4358677E-1,1.528354E-2,7.02694E-3,3.2666855E-2,1.4807597E-2,1.2995479E-2,4.1745286E-3,3.616982E-3,-6.4260286E-4,3.1744943E-3,-1.2492738E-3,-2.7806084E-3,-6.42192E-3,-5.276998E-3,-9.426108E-3,-1.35551095E-2,-2.0285165E-2],"categories":[],"categories_nodes":[],"categories_segments":[],"categories_sizes":[],"default_left":[0,0,0,0,0,0,0,0,0,0,0,0,0,0,0,0,0,0,0,0,0,0,0,0,0,0,0,0,0,0,0],"id":37,"left_children":[1,3,5,7,9,11,13,15,17,19,21,23,25,27,29,-1,-1,-1,-1,-1,-1,-1,-1,-1,-1,-1,-1,-1,-1,-1,-1],"loss_changes":[1.709685E2,4.646508E1,3.9125168E1,1.0447792E1,1.9678556E1,8.877445E0,1.0823227E1,8.038586E0,7.2020607E0,1.5232727E1,1.3791298E1,2.935937E0,6.112377E0,3.497612E0,1.6820946E0,0E0,0E0,0E0,0E0,0E0,0E0,0E0,0E0,0E0,0E0,0E0,0E0,0E0,0E0,0E0,0E0],"parents":[2147483647,0,0,1,1,2,2,3,3,4,4,5,5,6,6,7,7,8,8,9,9,10,10,11,11,12,12,13,13,14,14],"right_children":[2,4,6,8,10,12,14,16,18,20,22,24,26,28,30,-1,-1,-1,-1,-1,-1,-1,-1,-1,-1,-1,-1,-1,-1,-1,-1],"split_conditions":[-1.47E1,-4.049E2,2.403E2,-5.48E1,1E0,1E0,5.112E2,-6.723E2,-6.063E2,1.3513513E-1,-1.966E2,1.9512194E-1,1.312E2,1E0,5.756E2,1.528354E-2,7.02694E-3,3.2666855E-2,1.4807597E-2,1.2995479E-2,4.1745286E-3,3.616982E-3,-6.4260286E-4,3.1744943E-3,-1.2492738E-3,-2.7806084E-3,-6.42192E-3,-5.276998E-3,-9.426108E-3,-1.35551095E-2,-2.0285165E-2],"split_indices":[0,0,0,1,4,4,0,0,0,2,0,2,0,4,0,0,0,0,0,0,0,0,0,0,0,0,0,0,0,0,0],"split_type":[0,0,0,0,0,0,0,0,0,0,0,0,0,0,0,0,0,0,0,0,0,0,0,0,0,0,0,0,0,0,0],"sum_hessian":[2.4245168E4,1.32788E4,1.0966368E4,2.0763887E3,1.1202411E4,7.9717886E3,2.9945793E3,1.6712308E3,4.051578E2,3.4127678E3,7.7896436E3,2.8777075E3,5.094081E3,2.5975586E3,3.9702066E2,3.8316235E2,1.2880685E3,6.821909E1,3.369387E2,5.917292E2,2.8210386E3,3.285895E3,4.5037485E3,4.4232724E2,2.4353804E3,3.3300342E3,1.764047E3,6.99933E2,1.8976256E3,1.8569505E2,2.113256E2],"tree_param":{"num_deleted":"0","num_feature":"5","num_nodes":"31","size_leaf_vector":"1"}},{"base_weights":[-2.4976511E-3,5.0167613E-2,-1.2266358E-1,1.270656E-1,6.1441497E-3,-9.804478E-2,-2.4879514E-1,2.3394382E-1,9.793589E-2,5.633867E-2,-1.7100347E-2,-4.0846806E-2,-1.2876979E-1,-2.1655014E-1,-3.6579415E-1,9.277606E-3,1.40285855E-2,8.564076E-3,3.6468487E-3,6.027353E-3,1.5302245E-3,-1.8025317E-3,2.8601368E-3,-2.5197808E-3,8.375176E-3,-8.132455E-3,-4.780815E-3,-1.3857419E-2,-8.946119E-3,-8.672687E-3,-1.904569E-2],"categories":[],"categories_nodes":[],"categories_segments":[],"categories_sizes":[],"default_left":[0,0,0,0,0,0,0,0,0,0,0,0,0,0,0,0,0,0,0,0,0,0,0,0,0,0,0,0,0,0,0],"id":38,"left_children":[1,3,5,7,9,11,13,15,17,19,21,23,25,27,29,-1,-1,-1,-1,-1,-1,-1,-1,-1,-1,-1,-1,-1,-1,-1,-1],"loss_changes":[1.5348514E2,5.7083954E1,2.292405E1,1.9089859E1,1.2513678E1,1.0864414E1,4.471512E0,2.913086E0,8.836079E0,5.6055E0,1.0324268E1,4.3114376E0,4.50338E0,2.1122131E0,6.8761826E-1,0E0,0E0,0E0,0E0,0E0,0E0,0E0,0E0,0E0,0E0,0E0,0E0,0E0,0E0,0E0,0E0],"parents":[2147483647,0,0,1,1,2,2,3,3,4,4,5,5,6,6,7,7,8,8,9,9,10,10,11,11,12,12,13,13,14,14],"right_children":[2,4,6,8,10,12,14,16,18,20,22,24,26,28,30,-1,-1,-1,-1,-1,-1,-1,-1,-1,-1,-1,-1,-1,-1,-1,-1],"split_conditions":[8.03E1,-2.156E2,3.679E2,-4.915E2,2.0454545E-1,1E0,5.518E2,5.625E-1,1E0,1E0,6.4285713E-1,8.214286E-1,3.75E-1,1.8181819E-1,1.904762E-1,9.277606E-3,1.40285855E-2,8.564076E-3,3.6468487E-3,6.027353E-3,1.5302245E-3,-1.8025317E-3,2.8601368E-3,-2.5197808E-3,8.375176E-3,-8.132455E-3,-4.780815E-3,-1.3857419E-2,-8.946119E-3,-8.672687E-3,-1.904569E-2],"split_indices":[0,0,0,0,2,4,0,3,4,4,3,3,3,3,2,0,0,0,0,0,0,0,0,0,0,0,0,0,0,0,0],"split_type":[0,0,0,0,0,0,0,0,0,0,0,0,0,0,0,0,0,0,0,0,0,0,0,0,0,0,0,0,0,0,0],"sum_hessian":[2.4250764E4,1.6861455E4,7.3893076E3,6.138006E3,1.0723449E4,6.1840586E3,1.2052488E3,1.3131113E3,4.8248945E3,3.3936738E3,7.3297754E3,2.1618557E3,4.0222031E3,9.47083E2,2.5816574E2,6.468117E2,6.662997E2,1.2249878E3,3.5999067E3,9.699369E2,2.423737E3,5.8406807E3,1.4890946E3,2.0678433E3,9.401227E1,1.9873936E3,2.0348097E3,3.6036386E2,5.867191E2,1.972402E1,2.3844173E2],"tree_param":{"num_deleted":"0","num_feature":"5","num_nodes":"31","size_leaf_vector":"1"}},{"base_weights":[-1.4096522E-3,5.6276195E-2,-1.0769999E-1,1.8112975E-1,3.0968148E-2,-6.2441476E-2,-1.9608165E-1,3.1464463E-1,1.5323274E-1,6.972905E-2,7.253362E-3,-1.6230755E-2,-9.07641E-2,-1.8226777E-1,-3.781293E-1,2.8444683E-2,1.2014404E-2,1.0535209E-2,6.8710977E-3,7.1670986E-3,2.1868222E-3,-2.8262517E-4,3.5514738E-3,-1.9677477E-3,1.5102056E-3,2.0374714E-3,-5.2757794E-3,-1.1644895E-2,-7.743039E-3,-5.464806E-3,-1.9604996E-2],"categories":[],"categories_nodes":[],"categories_segments":[],"categories_sizes":[],"default_left":[0,0,0,0,0,0,0,0,0,0,0,0,0,0,0,0,0,0,0,0,0,0,0,0,0,0,0,0,0,0,0],"id":39,"left_children":[1,3,5,7,9,11,13,15,17,19,21,23,25,27,29,-1,-1,-1,-1,-1,-1,-1,-1,-1,-1,-1,-1,-1,-1,-1,-1],"loss_changes":[1.479085E2,4.9403038E1,3.3933136E1,9.76693E0,1.1951448E1,7.3459167E0,7.157303E0,8.455486E0,1.9534683E0,9.437119E0,6.6411004E0,2.2931037E0,6.756237E0,3.6727142E0,7.148094E-1,0E0,0E0,0E0,0E0,0E0,0E0,0E0,0E0,0E0,0E0,0E0,0E0,0E0,0E0,0E0,0E0],"parents":[2147483647,0,0,1,1,2,2,3,3,4,4,5,5,6,6,7,7,8,8,9,9,10,10,11,11,12,12,13,13,14,14],"right_children":[2,4,6,8,10,12,14,16,18,20,22,24,26,28,30,-1,-1,-1,-1,-1,-1,-1,-1,-1,-1,-1,-1,-1,-1,-1,-1],"split_conditions":[4.77E1,-3.707E2,2.403E2,-6.723E2,2.1621622E-1,1E0,5.756E2,1E0,1E0,1E0,7.804878E-1,5.714286E-1,1.5384616E-1,2E-1,1.6666667E-1,2.8444683E-2,1.2014404E-2,1.0535209E-2,6.8710977E-3,7.1670986E-3,2.1868222E-3,-2.8262517E-4,3.5514738E-3,-1.9677477E-3,1.5102056E-3,2.0374714E-3,-5.2757794E-3,-1.1644895E-2,-7.743039E-3,-5.464806E-3,-1.9604996E-2],"split_indices":[0,0,0,0,2,4,0,4,4,4,3,3,2,3,2,0,0,0,0,0,0,0,0,0,0,0,0,0,0,0,0],"split_type":[0,0,0,0,0,0,0,0,0,0,0,0,0,0,0,0,0,0,0,0,0,0,0,0,0,0,0,0,0,0,0],"sum_hessian":[2.4120938E4,1.5635641E4,8.485298E3,2.6341733E3,1.3001468E4,5.6128E3,2.8724978E3,4.5349088E2,2.1806824E3,4.9344155E3,8.0670522E3,2.133458E3,3.479342E3,2.671764E3,2.0073387E2,1.011105E2,3.5238037E2,4.6782724E2,1.7128552E3,1.2864847E3,3.6479307E3,6.7100947E3,1.3569573E3,1.4243135E3,7.091445E2,3.507297E2,3.1286123E3,9.357023E2,1.7360618E3,1.0352203E1,1.9038167E2],"tree_param":{"num_deleted":"0","num_feature":"5","num_nodes":"31","size_leaf_vector":"1"}},{"base_weights":[1.5415477E-3,9.512901E-2,-6.3161425E-2,1.9989114E-1,7.4429005E-2,-3.1843465E-2,-1.8769601E-1,1.5412591E-1,3.7464607E-1,1.3640916E-1,5.2807532E-2,-1.295881E-2,-7.470596E-2,-2.562178E-1,-1.4663413E-1,1.55410785E-2,6.2386277E-3,3.5E-2,1.7017383E-2,6.0190405E-3,2.8235847E-2,2.9196662E-3,-5.6203213E-3,-1.9296947E-3,1.7696752E-3,-7.1633416E-3,-2.7147E-3,-9.920845E-3,-1.6019188E-2,-9.454538E-3,-5.9283404E-3],"categories":[],"categories_nodes":[],"categories_segments":[],"categories_sizes":[],"default_left":[0,0,0,0,0,0,0,0,0,0,0,0,0,0,0,0,0,0,0,0,0,0,0,0,0,0,0,0,0,0,0],"id":40,"left_children":[1,3,5,7,9,11,13,15,17,19,21,23,25,27,29,-1,-1,-1,-1,-1,-1,-1,-1,-1,-1,-1,-1,-1,-1,-1,-1],"loss_changes":[1.4709496E2,2.151789E1,5.6008793E1,1.3039825E1,1.1105976E1,9.28928E0,8.082054E0,5.938307E0,5.56736E0,1.46513405E1,5.6818085E0,9.878237E0,4.904337E0,3.941986E0,2.1306648E0,0E0,0E0,0E0,0E0,0E0,0E0,0E0,0E0,0E0,0E0,0E0,0E0,0E0,0E0,0E0,0E0],"parents":[2147483647,0,0,1,1,2,2,3,3,4,4,5,5,6,6,7,7,8,8,9,9,10,10,11,11,12,12,13,13,14,14],"right_children":[2,4,6,8,10,12,14,16,18,20,22,24,26,28,30,-1,-1,-1,-1,-1,-1,-1,-1,-1,-1,-1,-1,-1,-1,-1,-1],"split_conditions":[-1.105E2,-4.555E2,2.403E2,-5.695E1,1.5384616E-1,6E-1,2E-1,-7.566E2,-7.566E2,9.2E-1,2.855E1,4.390244E-1,2.580645E-1,3.781E2,1.575E2,1.55410785E-2,6.2386277E-3,3.5E-2,1.7017383E-2,6.0190405E-3,2.8235847E-2,2.9196662E-3,-5.6203213E-3,-1.9296947E-3,1.7696752E-3,-7.1633416E-3,-2.7147E-3,-9.920845E-3,-1.6019188E-2,-9.454538E-3,-5.9283404E-3],"split_indices":[0,0,0,1,2,2,3,0,0,1,1,3,3,0,1,0,0,0,0,0,0,0,0,0,0,0,0,0,0,0,0],"split_type":[0,0,0,0,0,0,0,0,0,0,0,0,0,0,0,0,0,0,0,0,0,0,0,0,0,0,0,0,0,0,0],"sum_hessian":[2.4289594E4,9.928448E3,1.4361145E4,1.6366671E3,8.291781E3,1.1476332E4,2.8848125E3,1.298496E3,3.381712E2,2.143089E3,6.148692E3,7.967332E3,3.5090002E3,1.0789987E3,1.8058137E3,2.0335371E2,1.0951422E3,1.4776522E1,3.2339468E2,2.0670173E3,7.607191E1,5.948232E3,2.0045976E2,5.2069507E3,2.7603818E3,8.036468E2,2.7053535E3,5.698069E2,5.091918E2,7.1639996E2,1.0894138E3],"tree_param":{"num_deleted":"0","num_feature":"5","num_nodes":"31","size_leaf_vector":"1"}},{"base_weights":[-1.07840795E-4,8.04228E-2,-7.9232015E-2,1.6821209E-1,4.6028722E-2,-4.6436742E-2,-1.8520755E-1,2.5493848E-1,1.4248423E-1,9.865602E-2,2.2977417E-2,-6.5468033E-3,-6.932389E-2,-1.7160232E-1,-3.7959287E-1,2.429627E-2,1.0502232E-2,1.0634464E-2,6.2229843E-3,8.856532E-3,2.8272585E-3,2.3606417E-3,-2.826751E-4,2.3894568E-3,-1.478928E-3,-2.0941799E-3,-5.346226E-3,-1.1318229E-2,-7.108867E-3,-7.898699E-3,-1.9804996E-2],"categories":[],"categories_nodes":[],"categories_segments":[],"categories_sizes":[],"default_left":[0,0,0,0,0,0,0,0,0,0,0,0,0,0,0,0,0,0,0,0,0,0,0,0,0,0,0,0,0,0,0],"id":41,"left_children":[1,3,5,7,9,11,13,15,17,19,21,23,25,27,29,-1,-1,-1,-1,-1,-1,-1,-1,-1,-1,-1,-1,-1,-1,-1,-1],"loss_changes":[1.5503389E2,3.640123E1,4.2644676E1,7.536583E0,1.0509813E1,8.557299E0,7.6043625E0,7.936878E0,3.2885857E0,8.71121E0,4.182417E0,4.2795024E0,6.1408253E0,4.3380814E0,6.283722E-1,0E0,0E0,0E0,0E0,0E0,0E0,0E0,0E0,0E0,0E0,0E0,0E0,0E0,0E0,0E0,0E0],"parents":[2147483647,0,0,1,1,2,2,3,3,4,4,5,5,6,6,7,7,8,8,9,9,10,10,11,11,12,12,13,13,14,14],"right_children":[2,4,6,8,10,12,14,16,18,20,22,24,26,28,30,-1,-1,-1,-1,-1,-1,-1,-1,-1,-1,-1,-1,-1,-1,-1,-1],"split_conditions":[-5.47E1,-3.384E2,2.403E2,1E0,1E0,1E0,5.756E2,-6.723E2,-6.063E2,2.1428572E-1,3.783784E-1,2.98E1,4.1379312E-1,2E-1,1E0,2.429627E-2,1.0502232E-2,1.0634464E-2,6.2229843E-3,8.856532E-3,2.8272585E-3,2.3606417E-3,-2.826751E-4,2.3894568E-3,-1.478928E-3,-2.0941799E-3,-5.346226E-3,-1.1318229E-2,-7.108867E-3,-7.898699E-3,-1.9804996E-2],"split_indices":[0,0,0,4,4,4,0,0,0,2,2,0,2,3,4,0,0,0,0,0,0,0,0,0,0,0,0,0,0,0,0],"split_type":[0,0,0,0,0,0,0,0,0,0,0,0,0,0,0,0,0,0,0,0,0,0,0,0,0,0,0,0,0,0,0],"sum_hessian":[2.4328799E4,1.205723E4,1.2271568E4,3.3929614E3,8.66427E3,9.372564E3,2.8990034E3,7.7422046E2,2.618741E3,2.6380918E3,6.0261772E3,3.4175E3,5.9550645E3,2.7111316E3,1.8787189E2,1.2438956E2,6.498309E2,5.3278E2,2.085961E3,9.2015466E2,1.7179373E3,3.2632566E3,2.7629207E3,1.01704297E3,2.4004568E3,3.4438882E3,2.5111763E3,9.4525085E2,1.7658807E3,1.3756106E1,1.7411578E2],"tree_param":{"num_deleted":"0","num_feature":"5","num_nodes":"31","size_leaf_vector":"1"}},{"base_weights":[-6.0938112E-3,4.6888262E-2,-1.0746575E-1,1.0730143E-1,5.4851803E-3,-7.889655E-2,-2.1824826E-1,2.001286E-1,8.211671E-2,5.0854124E-2,-1.6637014E-2,-3.3184055E-2,-1.050287E-1,-1.954188E-1,-3.9096287E-1,7.85964E-3,1.9087454E-2,3.407357E-3,1.188986E-2,9.903992E-3,1.3521248E-3,3.122765E-3,-1.3049685E-3,1.9665357E-2,-1.8625472E-3,-3.926192E-3,-6.9193677E-3,-5.674291E-3,-1.0880431E-2,-5.0570075E-3,-2.0244392E-2],"categories":[],"categories_nodes":[],"categories_segments":[],"categories_sizes":[],"default_left":[0,0,0,0,0,0,0,0,0,0,0,0,0,0,0,0,0,0,0,0,0,0,0,0,0,0,0,0,0,0,0],"id":42,"left_children":[1,3,5,7,9,11,13,15,17,19,21,23,25,27,29,-1,-1,-1,-1,-1,-1,-1,-1,-1,-1,-1,-1,-1,-1,-1,-1],"loss_changes":[1.2941353E2,3.958155E1,2.6159317E1,1.5027428E1,9.425929E0,7.852768E0,6.60717E0,1.0643402E1,1.0995609E1,1.0786274E1,4.7265615E0,4.1663275E0,3.6885338E0,2.7008858E0,7.5366783E-1,0E0,0E0,0E0,0E0,0E0,0E0,0E0,0E0,0E0,0E0,0E0,0E0,0E0,0E0,0E0,0E0],"parents":[2147483647,0,0,1,1,2,2,3,3,4,4,5,5,6,6,7,7,8,8,9,9,10,10,11,11,12,12,13,13,14,14],"right_children":[2,4,6,8,10,12,14,16,18,20,22,24,26,28,30,-1,-1,-1,-1,-1,-1,-1,-1,-1,-1,-1,-1,-1,-1,-1,-1],"split_conditions":[4.94E1,-2.115E2,3.212E2,-4.915E2,1E0,1E0,5.756E2,-5.695E1,-5.25E0,1.3513513E-1,-3.2867E2,-2.925E2,1.706E2,1E0,1.6666667E-1,7.85964E-3,1.9087454E-2,3.407357E-3,1.188986E-2,9.903992E-3,1.3521248E-3,3.122765E-3,-1.3049685E-3,1.9665357E-2,-1.8625472E-3,-3.926192E-3,-6.9193677E-3,-5.674291E-3,-1.0880431E-2,-5.0570075E-3,-2.0244392E-2],"split_indices":[0,0,0,0,4,4,0,1,1,2,1,1,0,4,2,0,0,0,0,0,0,0,0,0,0,0,0,0,0,0,0],"split_type":[0,0,0,0,0,0,0,0,0,0,0,0,0,0,0,0,0,0,0,0,0,0,0,0,0,0,0,0,0,0,0],"sum_hessian":[2.4093396E4,1.5823683E4,8.269714E3,6.433976E3,9.389707E3,6.575659E3,1.6940549E3,1.3715814E3,5.0623945E3,3.0773252E3,6.3123813E3,2.3925986E3,4.1830605E3,1.4981594E3,1.9589551E2,1.11084E3,2.6074155E2,4.646859E3,4.1553577E2,4.2740295E2,2.649922E3,6.7390015E2,5.6384814E3,2.1695536E1,2.370903E3,2.3328591E3,1.8502015E3,3.2057855E2,1.1775808E3,9.3594265E0,1.8653609E2],"tree_param":{"num_deleted":"0","num_feature":"5","num_nodes":"31","size_leaf_vector":"1"}},{"base_weights":[1.6873085E-4,6.300853E-2,-8.070211E-2,1.255018E-1,2.2484766E-2,-4.9002677E-2,-1.7254058E-1,2.207535E-1,1.02736376E-1,6.3512206E-2,-9.3967846E-4,-7.747989E-3,-7.320009E-2,-1.5868127E-1,-4.3177393E-1,1.6623573E-2,9.589383E-3,6.527748E-3,2.6633446E-3,7.20393E-3,1.6310596E-3,-7.446639E-4,3.4843192E-3,8.9567417E-4,-1.961936E-3,-5.6596817E-3,-2.3403747E-3,-1.096202E-2,-6.863862E-3,-2.220325E-2,-6.8839826E-3],"categories":[],"categories_nodes":[],"categories_segments":[],"categories_sizes":[],"default_left":[0,0,0,0,0,0,0,0,0,0,0,0,0,0,0,0,0,0,0,0,0,0,0,0,0,0,0,0,0,0,0],"id":43,"left_children":[1,3,5,7,9,11,13,15,17,19,21,23,25,27,29,-1,-1,-1,-1,-1,-1,-1,-1,-1,-1,-1,-1,-1,-1,-1,-1],"loss_changes":[1.2304607E2,3.4502575E1,3.0813698E1,1.1599167E1,7.944732E0,7.857769E0,9.690544E0,3.2789726E0,5.9485054E0,7.472761E0,5.1878853E0,2.3533936E0,5.231907E0,3.3141403E0,4.3505287E-1,0E0,0E0,0E0,0E0,0E0,0E0,0E0,0E0,0E0,0E0,0E0,0E0,0E0,0E0,0E0,0E0],"parents":[2147483647,0,0,1,1,2,2,3,3,4,4,5,5,6,6,7,7,8,8,9,9,10,10,11,11,12,12,13,13,14,14],"right_children":[2,4,6,8,10,12,14,16,18,20,22,24,26,28,30,-1,-1,-1,-1,-1,-1,-1,-1,-1,-1,-1,-1,-1,-1,-1,-1],"split_conditions":[-1.47E1,-2.501E2,2.446E2,-5.397E2,2.1428572E-1,1E0,6.157E2,1E0,3.6666667E-1,1E0,7.804878E-1,5.625E-1,2.857143E-1,1.3513513E-1,5.714286E-1,1.6623573E-2,9.589383E-3,6.527748E-3,2.6633446E-3,7.20393E-3,1.6310596E-3,-7.446639E-4,3.4843192E-3,8.9567417E-4,-1.961936E-3,-5.6596817E-3,-2.3403747E-3,-1.096202E-2,-6.863862E-3,-2.220325E-2,-6.8839826E-3],"split_indices":[0,0,0,0,2,4,0,4,2,4,3,2,3,3,3,0,0,0,0,0,0,0,0,0,0,0,0,0,0,0,0],"split_type":[0,0,0,0,0,0,0,0,0,0,0,0,0,0,0,0,0,0,0,0,0,0,0,0,0,0,0,0,0,0,0],"sum_hessian":[2.4210572E4,1.3624233E4,1.058634E4,5.358533E3,8.2657E3,7.8710586E3,2.7152812E3,1.03198E3,4.3265537E3,3.0034707E3,5.2622295E3,2.910391E3,4.9606675E3,2.5790125E3,1.3626884E2,2.1032037E2,8.2165955E2,2.7682314E3,1.5583219E3,8.314124E2,2.1720583E3,4.3947476E3,8.674817E2,1.6038562E3,1.3065348E3,1.9708649E3,2.9898025E3,6.71075E2,1.9079374E3,1.3031274E2,5.9561048E0],"tree_param":{"num_deleted":"0","num_feature":"5","num_nodes":"31","size_leaf_vector":"1"}},{"base_weights":[1.688102E-3,4.632048E-2,-6.1573062E-2,8.555853E-2,4.229271E-3,2.0978469E-4,-9.131742E-2,4.9938947E-2,1.3674748E-1,-6.249385E-2,2.4483224E-2,2.0483035E-1,-2.0802656E-2,-1.566195E-1,-6.821184E-2,3.6530893E-3,5.0935487E-4,6.511681E-3,2.4796361E-2,-3.8847444E-3,1.3797799E-3,-8.44344E-3,1.4097982E-3,8.317844E-4,1.3800614E-2,-1.4569237E-3,5.8148424E-3,-6.371232E-3,-1.1767222E-2,-2.1349444E-4,-4.3972097E-3],"categories":[],"categories_nodes":[],"categories_segments":[],"categories_sizes":[],"default_left":[0,0,0,0,0,0,0,0,0,0,0,0,0,0,0,0,0,0,0,0,0,0,0,0,0,0,0,0,0,0,0],"id":44,"left_children":[1,3,5,7,9,11,13,15,17,19,21,23,25,27,29,-1,-1,-1,-1,-1,-1,-1,-1,-1,-1,-1,-1,-1,-1,-1,-1],"loss_changes":[6.857274E1,2.3517849E1,1.8462585E1,1.3430466E1,9.287315E0,1.4046368E1,1.0221806E1,3.9951744E0,7.0090294E0,2.1937418E0,3.7892427E0,4.070982E0,3.3892581E0,4.041889E0,6.3221855E0,0E0,0E0,0E0,0E0,0E0,0E0,0E0,0E0,0E0,0E0,0E0,0E0,0E0,0E0,0E0,0E0],"parents":[2147483647,0,0,1,1,2,2,3,3,4,4,5,5,6,6,7,7,8,8,9,9,10,10,11,11,12,12,13,13,14,14],"right_children":[2,4,6,8,10,12,14,16,18,20,22,24,26,28,30,-1,-1,-1,-1,-1,-1,-1,-1,-1,-1,-1,-1,-1,-1,-1,-1],"split_conditions":[1.5E-1,3.3333334E-1,1E0,4.642857E-1,3.5135135E-1,1.4705883E-1,1.923077E-1,-3.29E1,-7.3E-1,6.4705884E-1,-1.273E3,2E-1,8.076923E-1,5.813953E-1,2.0689656E-1,3.6530893E-3,5.0935487E-4,6.511681E-3,2.4796361E-2,-3.8847444E-3,1.3797799E-3,-8.44344E-3,1.4097982E-3,8.317844E-4,1.3800614E-2,-1.4569237E-3,5.8148424E-3,-6.371232E-3,-1.1767222E-2,-2.1349444E-4,-4.3972097E-3],"split_indices":[1,2,4,3,3,2,3,1,1,2,1,3,3,2,2,0,0,0,0,0,0,0,0,0,0,0,0,0,0,0,0],"split_type":[0,0,0,0,0,0,0,0,0,0,0,0,0,0,0,0,0,0,0,0,0,0,0,0,0,0,0,0,0,0,0],"sum_hessian":[2.4284455E4,1.423885E4,1.0045606E4,7.3686504E3,6.8701987E3,3.2649272E3,6.7806787E3,4.3462847E3,3.0223657E3,1.5993462E3,5.270853E3,3.03237E2,2.9616902E3,1.7706388E3,5.01004E3,2.7473623E3,1.5989226E3,2.9698684E3,5.2497143E1,1.3685625E3,2.3078369E2,9.8465805E1,5.172387E3,8.3557304E1,2.1967969E2,2.7926794E3,1.690108E2,1.2935491E3,4.7708975E2,1.1817714E3,3.8282686E3],"tree_param":{"num_deleted":"0","num_feature":"5","num_nodes":"31","size_leaf_vector":"1"}},{"base_weights":[-1.0653399E-3,4.938126E-2,-9.7907715E-2,1.328752E-1,2.3966625E-2,-7.1199946E-2,-1.9673899E-1,1.0242271E-1,2.1293366E-1,6.486472E-2,4.3255407E-3,-2.6155775E-2,-9.804916E-2,-1.7880373E-1,-3.538584E-1,1.3146611E-2,4.4494527E-3,3.5E-2,1.0001264E-2,2.984704E-3,1.8556675E-2,2.295788E-3,-7.3360855E-4,-1.7487872E-3,8.973063E-3,-6.77621E-3,-3.3218227E-3,-1.2206127E-2,-7.161868E-3,-7.898024E-3,-1.8474467E-2],"categories":[],"categories_nodes":[],"categories_segments":[],"categories_sizes":[],"default_left":[0,0,0,0,0,0,0,0,0,0,0,0,0,0,0,0,0,0,0,0,0,0,0,0,0,0,0,0,0,0,0],"id":45,"left_children":[1,3,5,7,9,11,13,15,17,19,21,23,25,27,29,-1,-1,-1,-1,-1,-1,-1,-1,-1,-1,-1,-1,-1,-1,-1,-1],"loss_changes":[1.1852469E2,3.3845825E1,2.1919357E1,9.05291E0,9.824253E0,7.9108315E0,4.916725E0,5.7950935E0,6.7994957E0,6.261488E0,6.5298524E0,4.4403586E0,4.847313E0,3.6546364E0,4.9293327E-1,0E0,0E0,0E0,0E0,0E0,0E0,0E0,0E0,0E0,0E0,0E0,0E0,0E0,0E0,0E0,0E0],"parents":[2147483647,0,0,1,1,2,2,3,3,4,4,5,5,6,6,7,7,8,8,9,9,10,10,11,11,12,12,13,13,14,14],"right_children":[2,4,6,8,10,12,14,16,18,20,22,24,26,28,30,-1,-1,-1,-1,-1,-1,-1,-1,-1,-1,-1,-1,-1,-1,-1,-1],"split_conditions":[4.94E1,-3.224E2,3.108E2,-9.227E1,1E0,1E0,5.756E2,-7.566E2,-7.566E2,4.64E1,-1.836E2,8.181818E-1,3.6363637E-1,1.8181819E-1,1E0,1.3146611E-2,4.4494527E-3,3.5E-2,1.0001264E-2,2.984704E-3,1.8556675E-2,2.295788E-3,-7.3360855E-4,-1.7487872E-3,8.973063E-3,-6.77621E-3,-3.3218227E-3,-1.2206127E-2,-7.161868E-3,-7.898024E-3,-1.8474467E-2],"split_indices":[0,0,0,1,4,4,0,0,0,0,0,3,3,3,4,0,0,0,0,0,0,0,0,0,0,0,0,0,0,0,0],"split_type":[0,0,0,0,0,0,0,0,0,0,0,0,0,0,0,0,0,0,0,0,0,0,0,0,0,0,0,0,0,0,0],"sum_hessian":[2.4259166E4,1.5950703E4,8.308463E3,3.7212297E3,1.2229474E4,6.5422354E3,1.7662273E3,2.6974558E3,1.023774E3,3.9669338E3,8.26254E3,2.4439922E3,4.098243E3,1.587187E3,1.7904024E2,2.0689066E2,2.4905652E3,2.3071432E1,1.0007026E3,3.9022483E3,6.468555E1,2.5903252E3,5.6722144E3,2.3442646E3,9.972765E1,1.8737426E3,2.2245007E3,5.574846E2,1.0297024E3,1.4050832E1,1.649894E2],"tree_param":{"num_deleted":"0","num_feature":"5","num_nodes":"31","size_leaf_vector":"1"}},{"base_weights":[7.428902E-4,4.445819E-2,-1.0461102E-1,1.0632368E-1,6.922493E-3,-8.0947E-2,-2.258917E-1,9.417888E-2,2.9033685E-1,-2.4601258E-2,2.7558424E-2,-1.1602636E-1,-5.2674573E-2,-1.9972032E-1,-3.6846903E-1,8.714366E-3,3.6875922E-3,1.6828567E-2,-8.953118E-3,-1.13160604E-4,-3.5572797E-3,4.547759E-3,7.81072E-4,-6.9547775E-3,-1.9326514E-3,-3.0579802E-3,4.8396415E-3,-6.9891396E-3,-1.1363624E-2,-3.3121367E-3,